{"learner":{"attributes":{"scikit_learn":"{\"_estimator_type\": \"classifier\"}"},"feature_names":[],"feature_types":[],"gradient_booster":{"model":{"cats":{"enc":[],"feature_segments":[],"sorted_idx":[]},"gbtree_model_param":{"num_parallel_tree":"1","num_trees":"120"},"iteration_indptr":[0,1,2,3,4,5,6,7,8,9,10,11,12,13,14,15,16,17,18,19,20,21,22,23,24,25,26,27,28,29,30,31,32,33,34,35,36,37,38,39,40,41,42,43,44,45,46,47,48,49,50,51,52,53,54,55,56,57,58,59,60,61,62,63,64,65,66,67,68,69,70,71,72,73,74,75,76,77,78,79,80,81,82,83,84,85,86,87,88,89,90,91,92,93,94,95,96,97,98,99,100,101,102,103,104,105,106,107,108,109,110,111,112,113,114,115,116,117,118,119,120],"tree_info":[0,0,0,0,0,0,0,0,0,0,0,0,0,0,0,0,0,0,0,0,0,0,0,0,0,0,0,0,0,0,0,0,0,0,0,0,0,0,0,0,0,0,0,0,0,0,0,0,0,0,0,0,0,0,0,0,0,0,0,0,0,0,0,0,0,0,0,0,0,0,0,0,0,0,0,0,0,0,0,0,0,0,0,0,0,0,0,0,0,0,0,0,0,0,0,0,0,0,0,0,0,0,0,0,0,0,0,0,0,0,0,0,0,0,0,0,0,0,0,0],"trees":[{"base_weights":[2.4323275E-3,-5.1412505E-1,1.7164513E0,-1.2634078E0,-1.5540251E-1,9.7176397E-1,2.146266E0,-1.3604184E0,-6.7678E-1,-8.186815E-1,3.7328988E-1,-4.4480905E-2,1.2432941E0,2.217023E0,4.7106616E-2,-1.1131062E-1,-3.6953233E-2,-7.902641E-2,6.01396E-3,-8.791579E-2,2.2459421E-2,-2.5436249E-2,9.255985E-2,5.149184E-2,1.4938174E-1,1.8384989E-1,4.7106616E-2],"categories":[],"categories_nodes":[],"categories_segments":[],"categories_sizes":[],"default_left":[0,0,0,0,0,0,0,0,0,0,0,0,0,0,0,0,0,0,0,0,0,0,0,0,0,0,0],"id":0,"left_children":[1,3,5,7,9,11,13,15,17,19,21,-1,23,25,-1,-1,-1,-1,-1,-1,-1,-1,-1,-1,-1,-1,-1],"loss_changes":[1.1233699E2,2.6010086E1,7.3189316E0,8.677063E-1,2.3826448E1,5.9099197E0,6.563339E-1,8.000183E-2,1.5827436E0,9.572002E0,2.0959393E1,0E0,2.9104252E0,8.47641E-1,0E0,0E0,0E0,0E0,0E0,0E0,0E0,0E0,0E0,0E0,0E0,0E0,0E0],"parents":[2147483647,0,0,1,1,2,2,3,3,4,4,5,5,6,6,7,7,8,8,9,9,10,10,12,12,13,13],"right_children":[2,4,6,8,10,12,14,16,18,20,22,-1,24,26,-1,-1,-1,-1,-1,-1,-1,-1,-1,-1,-1,-1,-1],"split_conditions":[7.448123E-1,-6.6681635E-1,1.2451568E0,5.6103384E-1,-4.5601422E-1,-8.1334233E-1,2.4681656E0,4.112494E-1,-7.988086E-1,5.531952E-1,-2.0014292E-1,-4.4480905E-2,6.45609E-1,2.0833874E0,4.7106616E-2,-1.1131062E-1,-3.6953233E-2,-7.902641E-2,6.01396E-3,-8.791579E-2,2.2459421E-2,-2.5436249E-2,9.255985E-2,5.149184E-2,1.4938174E-1,1.8384989E-1,4.7106616E-2],"split_indices":[1,5,1,7,1,6,6,1,5,6,7,0,7,7,0,0,0,0,0,0,0,0,0,0,0,0,0],"split_type":[0,0,0,0,0,0,0,0,0,0,0,0,0,0,0,0,0,0,0,0,0,0,0,0,0,0,0],"sum_hessian":[1.2488195E2,9.6499695E1,2.8382261E1,3.0425785E1,6.6073906E1,1.1579963E1,1.68023E1,2.497639E1,5.449394E0,2.9063437E1,3.701047E1,1.5894067E0,9.990557E0,1.5667008E1,1.1352905E0,2.3614042E1,1.3623486E0,3.6329296E0,1.8164648E0,2.3159925E1,5.9035106E0,1.9981113E1,1.7029358E1,6.1305685E0,3.8599877E0,1.4531718E1,1.1352905E0],"tree_param":{"num_deleted":"0","num_feature":"8","num_nodes":"27","size_leaf_vector":"1"}},{"base_weights":[1.0566832E-2,-5.7551587E-1,1.2543062E0,-1.0401782E0,-5.467805E-2,5.0736517E-1,1.8249106E0,-1.1199268E0,8.743233E-2,-1.0398466E-1,2.415814E-1,-3.3627638E-1,9.456666E-1,1.9150146E0,7.4540284E-3,-1.1074357E-1,-6.0796313E-2,-5.147992E-2,4.6519402E-2,-8.2311556E-2,1.1523096E-2,9.735138E-2,1.8991174E-2,3.936418E-2,1.5799147E-1],"categories":[],"categories_nodes":[],"categories_segments":[],"categories_sizes":[],"default_left":[0,0,0,0,0,0,0,0,0,0,0,0,0,0,0,0,0,0,0,0,0,0,0,0,0],"id":1,"left_children":[1,3,5,7,9,11,13,15,-1,-1,17,19,21,23,-1,-1,-1,-1,-1,-1,-1,-1,-1,-1,-1],"loss_changes":[9.081541E1,2.0440353E1,1.6080559E1,8.828861E0,1.5434043E1,7.220045E0,3.291191E0,3.0961037E0,0E0,0E0,1.058919E1,2.5167108E0,2.1212835E0,8.248062E-1,0E0,0E0,0E0,0E0,0E0,0E0,0E0,0E0,0E0,0E0,0E0],"parents":[2147483647,0,0,1,1,2,2,3,3,4,4,5,5,6,6,7,7,10,10,11,11,12,12,13,13],"right_children":[2,4,6,8,10,12,14,16,-1,-1,18,20,22,24,-1,-1,-1,-1,-1,-1,-1,-1,-1,-1,-1],"split_conditions":[4.112494E-1,-3.692933E-1,1.1117315E0,1.8850335E0,-7.988086E-1,-3.5883448E-1,2.2525377E0,-2.152099E-2,8.743233E-2,-1.0398466E-1,-7.2286457E-1,-4.7661373E-3,8.4488124E-1,-4.1556495E-1,7.4540284E-3,-1.1074357E-1,-6.0796313E-2,-5.147992E-2,4.6519402E-2,-8.2311556E-2,1.1523096E-2,9.735138E-2,1.8991174E-2,3.936418E-2,1.5799147E-1],"split_indices":[1,7,1,5,5,5,7,5,0,0,1,3,1,4,0,0,0,0,0,0,0,0,0,0,0],"split_type":[0,0,0,0,0,0,0,0,0,0,0,0,0,0,0,0,0,0,0,0,0,0,0,0,0],"sum_hessian":[1.2259627E2,8.369449E1,3.8901775E1,4.370564E1,3.9988853E1,1.7665798E1,2.1235975E1,4.258838E1,1.11726E0,7.0349026E0,3.295395E1,6.119594E0,1.1546205E1,2.008509E1,1.1508849E0,2.2914316E1,1.9674063E1,8.896246E0,2.4057703E1,2.0382698E0,4.081324E0,7.8297853E0,3.7164192E0,1.1832694E0,1.8901821E1],"tree_param":{"num_deleted":"0","num_feature":"8","num_nodes":"25","size_leaf_vector":"1"}},{"base_weights":[7.407729E-2,-6.266111E-1,9.8112756E-1,-1.0506777E0,-1.2555633E-1,4.3746936E-1,1.7246343E0,-1.1529927E0,1.91622E-2,-8.768591E-1,1.555984E-1,-2.8163972E-1,6.651431E-1,1.8084967E0,7.126713E-3,-1.0589258E-1,-6.8556376E-2,-5.9852898E-2,4.0345214E-2,-9.110054E-2,1.2843486E-2,-5.6109037E-2,2.5497667E-2,2.49156E-2,-7.452028E-2,6.73122E-2,-1.8653763E-2,1.4990474E-1,3.1912316E-2],"categories":[],"categories_nodes":[],"categories_segments":[],"categories_sizes":[],"default_left":[0,0,0,0,0,0,0,0,0,0,0,0,0,0,0,0,0,0,0,0,0,0,0,0,0,0,0,0,0],"id":2,"left_children":[1,3,5,7,9,11,13,15,17,19,21,23,25,27,-1,-1,-1,-1,-1,-1,-1,-1,-1,-1,-1,-1,-1,-1,-1],"loss_changes":[7.9191574E1,1.48186E1,2.1183086E1,4.1786385E0,7.1892495E0,5.53928E0,2.936409E0,6.1756134E-1,1.9774096E0,2.694089E0,3.7386668E0,3.590628E0,4.174534E0,1.2254486E0,0E0,0E0,0E0,0E0,0E0,0E0,0E0,0E0,0E0,0E0,0E0,0E0,0E0,0E0,0E0],"parents":[2147483647,0,0,1,1,2,2,3,3,4,4,5,5,6,6,7,7,8,8,9,9,10,10,11,11,12,12,13,13],"right_children":[2,4,6,8,10,12,14,16,18,20,22,24,26,28,-1,-1,-1,-1,-1,-1,-1,-1,-1,-1,-1,-1,-1,-1,-1],"split_conditions":[1.11042775E-1,-3.692933E-1,1.1117315E0,8.039004E-1,-8.89646E-1,-7.075941E-1,2.5062633E0,-5.894394E-1,-1.0177536E0,1.866489E0,-3.012075E-1,-1.14197945E-2,1.8296617E0,1.6192207E0,7.126713E-3,-1.0589258E-1,-6.8556376E-2,-5.9852898E-2,4.0345214E-2,-9.110054E-2,1.2843486E-2,-5.6109037E-2,2.5497667E-2,2.49156E-2,-7.452028E-2,6.73122E-2,-1.8653763E-2,1.4990474E-1,3.1912316E-2],"split_indices":[1,7,1,2,1,7,7,1,3,0,4,2,7,2,0,0,0,0,0,0,0,0,0,0,0,0,0,0,0],"split_type":[0,0,0,0,0,0,0,0,0,0,0,0,0,0,0,0,0,0,0,0,0,0,0,0,0,0,0,0,0],"sum_hessian":[1.2263402E2,6.936181E1,5.3272213E1,3.6972927E1,3.2388878E1,3.16892E1,2.1583015E1,3.3674694E1,3.298233E0,8.243032E0,2.4145844E1,7.563331E0,2.4125868E1,2.0429743E1,1.153272E0,1.9158602E1,1.4516093E1,1.0675964E0,2.2306366E0,6.503493E0,1.7395399E0,3.3335383E0,2.0812305E1,4.2266865E0,3.3366446E0,2.0221533E1,3.9043353E0,1.9210318E1,1.2194247E0],"tree_param":{"num_deleted":"0","num_feature":"8","num_nodes":"29","size_leaf_vector":"1"}},{"base_weights":[1.706043E-2,-5.725859E-1,9.970722E-1,-1.0151943E0,-1.16090536E-1,-5.3296518E-2,1.359861E0,-1.0720502E0,1.2070343E-2,-1.00554E-1,1.7671384E-1,-6.974594E-1,1.0934693E0,6.861963E-1,1.6009414E0,-9.6958786E-2,-5.626501E-2,-9.411253E-2,3.279134E-2,-3.464255E-2,-8.339927E-2,1.1288613E-1,1.2278996E-3,-6.8206206E-2,7.603383E-2,1.3208349E-1,2.7318267E-2],"categories":[],"categories_nodes":[],"categories_segments":[],"categories_sizes":[],"default_left":[0,0,0,0,0,0,0,0,0,0,0,0,0,0,0,0,0,0,0,0,0,0,0,0,0,0,0],"id":3,"left_children":[1,3,5,7,9,11,13,15,-1,-1,17,19,21,23,25,-1,-1,-1,-1,-1,-1,-1,-1,-1,-1,-1,-1],"loss_changes":[7.345585E1,1.5921484E1,1.8266464E1,2.825325E0,1.36531925E1,1.0528027E1,4.6711044E0,1.130619E0,0E0,0E0,1.0854079E1,3.7656307E-1,1.7398419E0,5.3286757E0,1.0398026E0,0E0,0E0,0E0,0E0,0E0,0E0,0E0,0E0,0E0,0E0,0E0,0E0],"parents":[2147483647,0,0,1,1,2,2,3,3,4,4,5,5,6,6,7,7,10,10,11,11,12,12,13,13,14,14],"right_children":[2,4,6,8,10,12,14,16,-1,-1,18,20,22,24,26,-1,-1,-1,-1,-1,-1,-1,-1,-1,-1,-1,-1],"split_conditions":[2.1111165E-1,-4.538685E-1,-3.5883448E-1,1.5183884E0,-8.42806E-1,1.0116627E0,-5.2246076E-1,7.445254E-2,1.2070343E-2,-1.00554E-1,-6.5698624E-1,2.0474325E-1,1.7450866E0,2.7782422E-1,2.3925457E0,-9.6958786E-2,-5.626501E-2,-9.411253E-2,3.279134E-2,-3.464255E-2,-8.339927E-2,1.1288613E-1,1.2278996E-3,-6.8206206E-2,7.603383E-2,1.3208349E-1,2.7318267E-2],"split_indices":[1,7,5,5,5,1,6,6,0,0,4,6,7,1,4,0,0,0,0,0,0,0,0,0,0,0,0],"split_type":[0,0,0,0,0,0,0,0,0,0,0,0,0,0,0,0,0,0,0,0,0,0,0,0,0,0,0],"sum_hessian":[1.25129005E2,7.838352E1,4.6745483E1,3.917569E1,3.920783E1,1.2219607E1,3.452588E1,3.7431236E1,1.744456E0,7.3352532E0,3.1872576E1,8.075326E0,4.144281E0,1.0112971E1,2.4412907E1,2.5476238E1,1.1954997E1,4.0904984E0,2.7782078E1,5.84831E0,2.2270162E0,2.9626675E0,1.1816132E0,1.1557204E0,8.957251E0,2.3179886E1,1.233021E0],"tree_param":{"num_deleted":"0","num_feature":"8","num_nodes":"27","size_leaf_vector":"1"}},{"base_weights":[-5.241526E-2,-3.9824298E-1,1.3619267E0,-8.750017E-1,-6.550383E-2,8.075192E-1,1.5608488E0,-1.0667847E0,-2.5569832E-2,-8.4472924E-1,1.2456269E-1,1.1203847E0,-1.38256885E-2,1.6346183E0,2.6967842E-2,-9.194227E-2,-2.6983192E-2,-4.235576E-2,1.0874736E-1,-7.652777E-2,1.0474066E-2,-2.982794E-3,6.756931E-2,2.9340794E-2,1.12348355E-1,1.3694066E-1,4.2103685E-2],"categories":[],"categories_nodes":[],"categories_segments":[],"categories_sizes":[],"default_left":[0,0,0,0,0,0,0,0,0,0,0,0,0,0,0,0,0,0,0,0,0,0,0,0,0,0,0],"id":4,"left_children":[1,3,5,7,9,11,13,15,17,19,21,23,-1,25,-1,-1,-1,-1,-1,-1,-1,-1,-1,-1,-1,-1,-1],"loss_changes":[6.1700737E1,1.6003803E1,1.4738503E0,6.7390823E0,9.096616E0,2.8371077E0,9.9938583E-1,1.6500206E0,6.7733297E0,1.4385738E0,5.820772E0,9.11767E-1,0E0,4.6174622E-1,0E0,0E0,0E0,0E0,0E0,0E0,0E0,0E0,0E0,0E0,0E0,0E0,0E0],"parents":[2147483647,0,0,1,1,2,2,3,3,4,4,5,5,6,6,7,7,8,8,9,9,10,10,11,11,13,13],"right_children":[2,4,6,8,10,12,14,16,18,20,22,24,-1,26,-1,-1,-1,-1,-1,-1,-1,-1,-1,-1,-1,-1,-1],"split_conditions":[1.0116627E0,-4.893705E-1,-4.5277035E-1,5.531952E-1,-5.6753695E-1,-6.315413E-1,2.7681375E0,8.039004E-1,9.60541E-1,1.2046487E0,1.2625237E0,1.3452256E0,-1.38256885E-2,1.5709921E0,2.6967842E-2,-9.194227E-2,-2.6983192E-2,-4.235576E-2,1.0874736E-1,-7.652777E-2,1.0474066E-2,-2.982794E-3,6.756931E-2,2.9340794E-2,1.12348355E-1,1.3694066E-1,4.2103685E-2],"split_indices":[1,1,6,6,3,6,6,2,0,6,0,1,0,3,0,0,0,0,0,0,0,0,0,0,0,0,0],"split_type":[0,0,0,0,0,0,0,0,0,0,0,0,0,0,0,0,0,0,0,0,0,0,0,0,0,0,0],"sum_hessian":[1.2403788E2,1.0024493E2,2.3792957E1,4.053519E1,5.9709736E1,7.6186957E0,1.6174261E1,3.28602E1,7.6749907E0,1.103296E1,4.8676777E1,5.667211E0,1.951485E0,1.4938032E1,1.2362301E0,2.9004797E1,3.855403E0,6.0804305E0,1.5945601E0,9.915581E0,1.117379E0,4.0517757E1,8.15902E0,2.178159E0,3.4890518E0,1.3456959E1,1.4810731E0],"tree_param":{"num_deleted":"0","num_feature":"8","num_nodes":"27","size_leaf_vector":"1"}},{"base_weights":[-1.1902786E-2,-4.9424332E-1,5.037082E-1,-7.814465E-1,3.6463407E-1,-4.7062406E-1,7.027473E-1,-9.3712723E-1,1.24148525E-1,-4.7216475E-1,7.7858675E-1,-9.5066005E-1,-4.3669544E-2,4.4997615E-1,1.0563415E0,-9.066054E-2,-3.182745E-2,-6.669724E-2,3.6711145E-2,1.9473245E-2,-5.314888E-2,6.942927E-2,-5.5869715E-4,-2.2352334E-2,-8.405267E-2,6.686427E-2,-5.565299E-2,1.038551E-1,2.3493E-2,9.476638E-2,-4.1503157E-2],"categories":[],"categories_nodes":[],"categories_segments":[],"categories_sizes":[],"default_left":[0,0,0,0,0,0,0,0,0,0,0,0,0,0,0,0,0,0,0,0,0,0,0,0,0,0,0,0,0,0,0],"id":5,"left_children":[1,3,5,7,9,11,13,15,17,19,21,23,25,27,29,-1,-1,-1,-1,-1,-1,-1,-1,-1,-1,-1,-1,-1,-1,-1,-1],"loss_changes":[3.0967573E1,1.6151413E1,1.2004298E1,6.957058E0,6.1872983E0,2.1739802E0,4.027998E0,3.9407654E0,2.9479024E0,1.0120623E0,8.208747E-1,4.4775486E-2,4.463043E0,3.745338E0,4.7072124E0,0E0,0E0,0E0,0E0,0E0,0E0,0E0,0E0,0E0,0E0,0E0,0E0,0E0,0E0,0E0,0E0],"parents":[2147483647,0,0,1,1,2,2,3,3,4,4,5,5,6,6,7,7,8,8,9,9,10,10,11,11,12,12,13,13,14,14],"right_children":[2,4,6,8,10,12,14,16,18,20,22,24,26,28,30,-1,-1,-1,-1,-1,-1,-1,-1,-1,-1,-1,-1,-1,-1,-1,-1],"split_conditions":[-2.0014292E-1,4.454505E-1,-7.401454E-1,5.504453E-1,-5.194307E-1,6.45609E-1,1.5323298E-1,1.7141308E-1,-8.7674445E-1,-7.921693E-1,2.2463171E0,-9.0519947E-1,1.9142369E0,-5.493724E-1,2.7681375E0,-9.066054E-2,-3.182745E-2,-6.669724E-2,3.6711145E-2,1.9473245E-2,-5.314888E-2,6.942927E-2,-5.5869715E-4,-2.2352334E-2,-8.405267E-2,6.686427E-2,-5.565299E-2,1.038551E-1,2.3493E-2,9.476638E-2,-4.1503157E-2],"split_indices":[7,3,5,5,6,7,6,6,7,7,3,3,7,0,6,0,0,0,0,0,0,0,0,0,0,0,0,0,0,0,0],"split_type":[0,0,0,0,0,0,0,0,0,0,0,0,0,0,0,0,0,0,0,0,0,0,0,0,0,0,0,0,0,0,0],"sum_hessian":[1.2251672E2,6.332205E1,5.9194675E1,4.752136E1,1.580069E1,9.809743E0,4.9384933E1,4.0520645E1,7.000716E0,5.1829047E0,1.06177845E1,4.0404043E0,5.769338E0,3.0123417E1,1.9261517E1,2.8906406E1,1.1614237E1,1.4269254E0,5.573791E0,1.0409122E0,4.1419926E0,9.440163E0,1.1776215E0,1.0157948E0,3.0246096E0,2.336165E0,3.4331732E0,3.5507548E0,2.6572662E1,1.8040693E1,1.2208225E0],"tree_param":{"num_deleted":"0","num_feature":"8","num_nodes":"31","size_leaf_vector":"1"}},{"base_weights":[-2.26263E-2,-5.5907625E-1,7.7834344E-1,-8.7802094E-1,-1.5530217E-1,-1.3940147E-1,1.0950265E0,-9.569407E-1,7.992342E-2,-9.240573E-2,8.258339E-2,-6.407603E-1,4.32015E-1,6.976284E-1,1.5203902E0,-8.3135135E-2,-3.879598E-2,-5.822117E-2,3.42172E-2,-6.899699E-2,3.5778699E-3,6.696241E-2,-3.505188E-2,9.48122E-2,2.7406055E-2,2.1369737E-2,1.2813853E-1],"categories":[],"categories_nodes":[],"categories_segments":[],"categories_sizes":[],"default_left":[0,0,0,0,0,0,0,0,0,0,0,0,0,0,0,0,0,0,0,0,0,0,0,0,0,0,0],"id":6,"left_children":[1,3,5,7,9,11,13,15,-1,-1,17,19,21,23,25,-1,-1,-1,-1,-1,-1,-1,-1,-1,-1,-1,-1],"loss_changes":[5.3474342E1,9.458958E0,1.466411E1,7.090704E0,8.2045555E0,4.2006025E0,5.233326E0,1.058651E0,0E0,0E0,8.275379E0,1.2084739E0,2.833126E0,3.2459402E0,1.3190651E0,0E0,0E0,0E0,0E0,0E0,0E0,0E0,0E0,0E0,0E0,0E0,0E0],"parents":[2147483647,0,0,1,1,2,2,3,3,4,4,5,5,6,6,7,7,10,10,11,11,12,12,13,13,14,14],"right_children":[2,4,6,8,10,12,14,16,-1,-1,18,20,22,24,26,-1,-1,-1,-1,-1,-1,-1,-1,-1,-1,-1,-1],"split_conditions":[2.1111165E-1,-2.8471813E-1,-3.5883448E-1,1.8996992E0,-8.42806E-1,8.115249E-1,1.2118005E0,-1.22451276E-1,7.992342E-2,-9.240573E-2,-7.2286457E-1,-6.2281895E-1,-5.7882154E-1,1.5164426E-1,-4.028586E-1,-8.3135135E-2,-3.879598E-2,-5.822117E-2,3.42172E-2,-6.899699E-2,3.5778699E-3,6.696241E-2,-3.505188E-2,9.48122E-2,2.7406055E-2,2.1369737E-2,1.2813853E-1],"split_indices":[1,7,5,5,5,1,1,1,0,0,1,5,5,2,4,0,0,0,0,0,0,0,0,0,0,0,0],"split_type":[0,0,0,0,0,0,0,0,0,0,0,0,0,0,0,0,0,0,0,0,0,0,0,0,0,0,0],"sum_hessian":[1.2243877E2,7.350844E1,4.893032E1,4.0412064E1,3.309638E1,1.2696315E1,3.623401E1,3.9251938E1,1.1601262E0,5.6202774E0,2.74761E1,6.6980844E0,5.9982305E0,2.0097702E1,1.6136305E1,3.240361E1,6.8483243E0,7.8757243E0,1.9600376E1,4.8660917E0,1.8319927E0,4.1190886E0,1.8791417E0,7.4837604E0,1.2613942E1,1.2445687E0,1.4891736E1],"tree_param":{"num_deleted":"0","num_feature":"8","num_nodes":"27","size_leaf_vector":"1"}},{"base_weights":[1.0230812E-2,-5.234113E-1,7.4927557E-1,-9.4206095E-2,-2.9283497E-1,-1.2567984E-1,1.0593872E0,-7.6814395E-1,1.5024774E-1,-6.702323E-1,5.2623564E-1,5.46001E-1,1.237531E0,-8.861412E-2,-3.9356917E-2,-1.31324185E-2,7.4430846E-2,-6.9193594E-2,-4.465626E-3,-3.7416723E-2,6.445976E-2,7.144285E-2,-1.7478157E-2,1.0429341E-1,4.698735E-3],"categories":[],"categories_nodes":[],"categories_segments":[],"categories_sizes":[],"default_left":[0,0,0,0,0,0,0,0,0,0,0,0,0,0,0,0,0,0,0,0,0,0,0,0,0],"id":7,"left_children":[1,3,5,-1,7,9,11,13,15,17,19,21,23,-1,-1,-1,-1,-1,-1,-1,-1,-1,-1,-1,-1],"loss_changes":[4.7915833E1,1.0298531E1,1.3954231E1,0E0,1.1383468E1,5.402049E0,2.77351E0,1.8910055E0,7.149824E0,9.3135834E-1,2.3309593E0,3.2473943E0,2.0447006E0,0E0,0E0,0E0,0E0,0E0,0E0,0E0,0E0,0E0,0E0,0E0,0E0],"parents":[2147483647,0,0,1,1,2,2,4,4,5,5,6,6,7,7,8,8,9,9,10,10,11,11,12,12],"right_children":[2,4,6,-1,8,10,12,14,16,18,20,22,24,-1,-1,-1,-1,-1,-1,-1,-1,-1,-1,-1,-1],"split_conditions":[2.1111165E-1,-7.401454E-1,-3.5883448E-1,-9.4206095E-2,-3.692933E-1,8.115249E-1,-5.2246076E-1,-4.7661373E-3,4.0775436E-1,-6.2281895E-1,-4.538685E-1,-6.739616E-1,2.7954075E0,-8.861412E-2,-3.9356917E-2,-1.31324185E-2,7.4430846E-2,-6.9193594E-2,-4.465626E-3,-3.7416723E-2,6.445976E-2,7.144285E-2,-1.7478157E-2,1.0429341E-1,4.698735E-3],"split_indices":[1,5,5,0,7,1,6,3,6,5,7,6,6,0,0,0,0,0,0,0,0,0,0,0,0],"split_type":[0,0,0,0,0,0,0,0,0,0,0,0,0,0,0,0,0,0,0,0,0,0,0,0,0],"sum_hessian":[1.1950055E2,6.956298E1,4.9937572E1,1.7058743E1,5.2504234E1,1.3223433E1,3.6714138E1,2.4976988E1,2.7527246E1,7.189698E0,6.033734E0,1.0505025E1,2.6209114E1,9.853117E0,1.5123871E1,2.018292E1,7.344327E0,5.1500816E0,2.0396168E0,1.1765617E0,4.857172E0,7.1095033E0,3.3955214E0,2.471646E1,1.492656E0],"tree_param":{"num_deleted":"0","num_feature":"8","num_nodes":"25","size_leaf_vector":"1"}},{"base_weights":[-2.821869E-2,-2.873948E-1,1.0836451E0,-8.652955E-1,-7.093531E-2,1.1708573E0,8.394346E-3,-9.5760256E-1,4.4556335E-2,-5.7270473E-1,1.20855056E-1,1.5256622E-2,1.2234656E0,-8.625315E-2,-1.0749556E-3,-6.46059E-2,2.473013E-2,-4.8732877E-2,2.0422306E-2,1.024267E-1,1.7780256E-2],"categories":[],"categories_nodes":[],"categories_segments":[],"categories_sizes":[],"default_left":[0,0,0,0,0,0,0,0,0,0,0,0,0,0,0,0,0,0,0,0,0],"id":8,"left_children":[1,3,5,7,9,11,-1,13,-1,15,17,-1,19,-1,-1,-1,-1,-1,-1,-1,-1],"loss_changes":[3.416614E1,1.1955505E1,1.7906551E0,3.9582405E0,6.899607E0,8.229828E-1,0E0,2.8159695E0,0E0,4.3508105E0,5.275527E0,0E0,8.1189156E-1,0E0,0E0,0E0,0E0,0E0,0E0,0E0,0E0],"parents":[2147483647,0,0,1,1,2,2,3,3,4,4,5,5,7,7,9,9,10,10,12,12],"right_children":[2,4,6,8,10,12,-1,14,-1,16,18,-1,20,-1,-1,-1,-1,-1,-1,-1,-1],"split_conditions":[1.1117315E0,-7.2286457E-1,2.0833874E0,-1.2331814E-1,-4.7661373E-3,-9.799932E-1,8.394346E-3,8.89527E-1,4.4556335E-2,5.6103384E-1,-8.648526E-1,1.5256622E-2,2.7681375E0,-8.625315E-2,-1.0749556E-3,-6.46059E-2,2.473013E-2,-4.8732877E-2,2.0422306E-2,1.024267E-1,1.7780256E-2],"split_indices":[1,1,7,4,3,6,0,6,0,7,6,0,6,0,0,0,0,0,0,0,0],"split_type":[0,0,0,0,0,0,0,0,0,0,0,0,0,0,0,0,0,0,0,0,0],"sum_hessian":[1.1648232E2,9.50643E1,2.1418024E1,2.5087778E1,6.9976524E1,1.9485384E1,1.9326395E0,2.3865551E1,1.2222267E0,1.8801418E1,5.1175102E1,1.2281764E0,1.8257208E1,2.1037338E1,2.8282123E0,1.4913525E1,3.8878949E0,7.4087443E0,4.3766357E1,1.7012148E1,1.2450601E0],"tree_param":{"num_deleted":"0","num_feature":"8","num_nodes":"21","size_leaf_vector":"1"}},{"base_weights":[-1.48826735E-2,-3.241123E-1,8.7248784E-1,-1.0303208E0,-1.0540398E-1,4.1052628E-1,1.0965647E0,-1.0910861E0,-4.1582432E-1,-3.811013E-1,4.0847465E-1,-5.187944E-2,6.53646E-1,1.8023107E-2,1.2063389E0,-2.8359415E-2,-9.109692E-2,1.1110531E-2,-6.2373076E-2,-3.9139245E-2,1.17220685E-1,-5.06628E-2,4.9507108E-2,7.051923E-2,-3.0517101E-2,1.052394E-1,2.4812222E-2],"categories":[],"categories_nodes":[],"categories_segments":[],"categories_sizes":[],"default_left":[0,0,0,0,0,0,0,0,0,0,0,0,0,0,0,0,0,0,0,0,0,0,0,0,0,0,0],"id":9,"left_children":[1,3,5,7,9,11,13,15,17,19,21,-1,23,-1,25,-1,-1,-1,-1,-1,-1,-1,-1,-1,-1,-1,-1],"loss_changes":[3.1999111E1,1.3242891E1,2.6698112E0,3.0529594E-1,9.664422E0,3.3700945E0,1.6121597E0,2.2363663E-1,8.03553E-1,9.541769E0,5.63348E0,0E0,2.6485925E0,0E0,1.2807693E0,0E0,0E0,0E0,0E0,0E0,0E0,0E0,0E0,0E0,0E0,0E0,0E0],"parents":[2147483647,0,0,1,1,2,2,3,3,4,4,5,5,6,6,7,7,8,8,9,9,10,10,12,12,14,14],"right_children":[2,4,6,8,10,12,14,16,18,20,22,-1,24,-1,26,-1,-1,-1,-1,-1,-1,-1,-1,-1,-1,-1,-1],"split_conditions":[7.781686E-1,-7.401454E-1,1.2451568E0,4.112494E-1,1.5323298E-1,-7.739521E-1,-5.641557E-1,-1.1271224E0,-2.2248909E-1,1.8996992E0,-6.061607E-1,-5.187944E-2,1.2997968E0,1.8023107E-2,1.8136821E0,-2.8359415E-2,-9.109692E-2,1.1110531E-2,-6.2373076E-2,-3.9139245E-2,1.17220685E-1,-5.06628E-2,4.9507108E-2,7.051923E-2,-3.0517101E-2,1.052394E-1,2.4812222E-2],"split_indices":[1,5,1,1,6,6,5,4,6,5,4,0,4,0,6,0,0,0,0,0,0,0,0,0,0,0,0],"split_type":[0,0,0,0,0,0,0,0,0,0,0,0,0,0,0,0,0,0,0,0,0,0,0,0,0,0,0],"sum_hessian":[1.14583755E2,8.544333E1,2.914042E1,1.932666E1,6.611667E1,1.0442994E1,1.8697428E1,1.6881714E1,2.4449477E0,4.3198784E1,2.2917887E1,1.6384767E0,8.804517E0,2.4336777E0,1.626375E1,1.5379856E0,1.5343727E1,1.2133592E0,1.2315886E0,4.150302E1,1.6957619E0,3.5125768E0,1.940531E1,7.3377647E0,1.4667523E0,1.40808525E1,2.182897E0],"tree_param":{"num_deleted":"0","num_feature":"8","num_nodes":"27","size_leaf_vector":"1"}},{"base_weights":[-1.04021495E-2,-6.174103E-1,2.1920416E-1,-9.3598133E-1,-1.181327E-1,-8.557046E-1,3.6112586E-1,-9.102928E-2,-6.9449884E-1,1.8042152E-1,-6.29062E-1,1.3455416E-2,-8.839442E-2,2.2838745E-1,1.1274781E0,-7.047999E-2,-3.483945E-2,-2.3804145E-2,4.9292125E-2,-1.3458326E-2,-7.487464E-2,-2.0903498E-2,3.8470294E-2,1.07572846E-1,-2.8493648E-2],"categories":[],"categories_nodes":[],"categories_segments":[],"categories_sizes":[],"default_left":[0,0,0,0,0,0,0,0,0,0,0,0,0,0,0,0,0,0,0,0,0,0,0,0,0],"id":10,"left_children":[1,3,5,7,9,11,13,-1,15,17,19,-1,-1,21,23,-1,-1,-1,-1,-1,-1,-1,-1,-1,-1],"loss_changes":[1.6381504E1,5.0194845E0,1.332375E1,1.6262245E-1,2.2044907E0,2.8006887E0,7.480258E0,0E0,1.7020893E-1,2.1471348E0,5.89031E-1,0E0,0E0,8.297012E0,4.015662E0,0E0,0E0,0E0,0E0,0E0,0E0,0E0,0E0,0E0,0E0],"parents":[2147483647,0,0,1,1,2,2,3,3,4,4,5,5,6,6,8,8,9,9,10,10,13,13,14,14],"right_children":[2,4,6,8,10,12,14,-1,16,18,20,-1,-1,22,24,-1,-1,-1,-1,-1,-1,-1,-1,-1,-1],"split_conditions":[-5.201583E-1,-1.1556773E-1,-6.061607E-1,-5.493724E-1,1.9142369E0,-8.513551E-1,1.4450593E0,-9.102928E-2,-1.0187956E0,5.6103384E-1,9.60541E-1,1.3455416E-2,-8.839442E-2,-3.692933E-1,1.1530602E0,-7.047999E-2,-3.483945E-2,-2.3804145E-2,4.9292125E-2,-1.3458326E-2,-7.487464E-2,-2.0903498E-2,3.8470294E-2,1.07572846E-1,-2.8493648E-2],"split_indices":[5,7,4,0,7,0,5,0,5,7,0,0,0,7,7,0,0,0,0,0,0,0,0,0,0],"split_type":[0,0,0,0,0,0,0,0,0,0,0,0,0,0,0,0,0,0,0,0,0,0,0,0,0],"sum_hessian":[1.1556618E2,3.1253248E1,8.431293E1,1.8545414E1,1.2707833E1,9.247016E0,7.506591E1,8.079103E0,1.0466311E1,8.429217E0,4.2786164E0,1.8738383E0,7.3731775E0,6.508984E1,9.976068E0,4.688684E0,5.777627E0,4.1709833E0,4.258234E0,2.3291316E0,1.9494848E0,2.213207E1,4.295777E1,8.783922E0,1.1921463E0],"tree_param":{"num_deleted":"0","num_feature":"8","num_nodes":"25","size_leaf_vector":"1"}},{"base_weights":[-1.6386043E-2,-7.320019E-1,1.7159936E-1,-9.1544724E-1,5.297212E-2,-2.3409998E-1,4.4505575E-1,-1.8714806E-1,-1.0212272E0,-4.2622752E-2,5.445105E-1,-5.9939945E-1,2.2622496E-1,1.73522E-1,8.8341093E-1,1.40947625E-2,-3.567022E-2,-9.5985964E-2,-2.044636E-2,8.687923E-2,-1.3280486E-2,1.9540684E-2,-5.9235044E-2,4.4350043E-2,-6.363654E-2,-2.6019761E-2,3.7545733E-2,9.231391E-2,3.564216E-2],"categories":[],"categories_nodes":[],"categories_segments":[],"categories_sizes":[],"default_left":[0,0,0,0,0,0,0,0,0,0,0,0,0,0,0,0,0,0,0,0,0,0,0,0,0,0,0,0,0],"id":11,"left_children":[1,3,5,7,9,11,13,15,17,-1,19,21,23,25,27,-1,-1,-1,-1,-1,-1,-1,-1,-1,-1,-1,-1,-1,-1],"loss_changes":[1.5124492E1,3.4159765E0,9.990095E0,1.2734137E0,1.8377225E0,6.279114E0,6.223648E0,4.2029256E-1,1.9324951E0,0E0,1.4949701E0,2.6372213E0,6.1038766E0,5.217091E0,1.8843489E0,0E0,0E0,0E0,0E0,0E0,0E0,0E0,0E0,0E0,0E0,0E0,0E0,0E0,0E0],"parents":[2147483647,0,0,1,1,2,2,3,3,4,4,5,5,6,6,7,7,8,8,10,10,11,11,12,12,13,13,14,14],"right_children":[2,4,6,8,10,12,14,16,18,-1,20,22,24,26,28,-1,-1,-1,-1,-1,-1,-1,-1,-1,-1,-1,-1,-1,-1],"split_conditions":[-3.012075E-1,6.0773546E-1,-4.618604E-1,-8.513551E-1,-2.2987446E-1,3.9188343E-1,3.3289635E-1,-9.111139E-1,-5.299224E-1,-4.2622752E-2,5.580047E-1,-8.513551E-1,1.8296617E0,-2.4738972E-1,6.3906485E-1,1.40947625E-2,-3.567022E-2,-9.5985964E-2,-2.044636E-2,8.687923E-2,-1.3280486E-2,1.9540684E-2,-5.9235044E-2,4.4350043E-2,-6.363654E-2,-2.6019761E-2,3.7545733E-2,9.231391E-2,3.564216E-2],"split_indices":[4,6,6,0,3,7,3,4,4,0,3,0,7,0,4,0,0,0,0,0,0,0,0,0,0,0,0,0,0],"split_type":[0,0,0,0,0,0,0,0,0,0,0,0,0,0,0,0,0,0,0,0,0,0,0,0,0,0,0,0,0],"sum_hessian":[1.1049484E2,2.2385319E1,8.810953E1,1.8010193E1,4.3751254E0,3.5534515E1,5.2575012E1,2.635296E0,1.5374897E1,1.9579561E0,2.4171696E0,1.9643736E1,1.5890778E1,3.3326912E1,1.9248098E1,1.228775E0,1.4065211E0,1.200703E1,3.3678677E0,1.0718602E0,1.3453093E0,2.7087579E0,1.6934978E1,1.2373851E1,3.5169268E0,1.2369783E1,2.095713E1,1.0887109E1,8.360991E0],"tree_param":{"num_deleted":"0","num_feature":"8","num_nodes":"29","size_leaf_vector":"1"}},{"base_weights":[-3.7308667E-2,-4.8283082E-1,4.767227E-1,-9.031457E-1,-2.469716E-1,-2.6598474E-1,7.4945045E-1,-1.0255665E0,-3.05067E-1,-6.3103735E-1,1.4491555E-1,-7.095497E-2,2.440476E-2,4.6224046E-1,1.1426626E0,-8.469856E-2,-2.7258852E-2,1.09249735E-2,-6.595342E-2,-6.463844E-2,9.328834E-3,-6.01798E-2,3.4302156E-2,2.5953732E-2,-5.8253985E-2,-6.660412E-2,5.0925657E-2,1.0171006E-1,1.25573715E-2],"categories":[],"categories_nodes":[],"categories_segments":[],"categories_sizes":[],"default_left":[0,0,0,0,0,0,0,0,0,0,0,0,0,0,0,0,0,0,0,0,0,0,0,0,0,0,0,0,0],"id":12,"left_children":[1,3,5,7,9,11,13,15,17,19,21,-1,23,25,27,-1,-1,-1,-1,-1,-1,-1,-1,-1,-1,-1,-1,-1,-1],"loss_changes":[2.5728542E1,5.7391148E0,1.0772569E1,1.2423668E0,6.0968814E0,2.6827288E0,3.8131351E0,3.011322E-2,1.2668524E0,2.7847662E0,5.5591645E0,0E0,2.7263343E0,5.923416E0,1.7728958E0,0E0,0E0,0E0,0E0,0E0,0E0,0E0,0E0,0E0,0E0,0E0,0E0,0E0,0E0],"parents":[2147483647,0,0,1,1,2,2,3,3,4,4,5,5,6,6,7,7,8,8,9,9,10,10,12,12,13,13,14,14],"right_children":[2,4,6,8,10,12,14,16,18,20,22,-1,24,26,28,-1,-1,-1,-1,-1,-1,-1,-1,-1,-1,-1,-1,-1,-1],"split_conditions":[1.11042775E-1,-4.0283188E-1,-3.4416866E-1,6.408364E-1,-2.8471813E-1,-5.384437E-1,1.2118005E0,-2.2382399E-2,1.2930926E0,6.408364E-1,-8.89646E-1,-7.095497E-2,1.9142369E0,-8.678826E-1,1.8136821E0,-8.469856E-2,-2.7258852E-2,1.09249735E-2,-6.595342E-2,-6.463844E-2,9.328834E-3,-6.01798E-2,3.4302156E-2,2.5953732E-2,-5.8253985E-2,-6.660412E-2,5.0925657E-2,1.0171006E-1,1.25573715E-2],"split_indices":[1,5,5,2,7,7,1,1,2,2,1,0,7,6,6,0,0,0,0,0,0,0,0,0,0,0,0,0,0],"split_type":[0,0,0,0,0,0,0,0,0,0,0,0,0,0,0,0,0,0,0,0,0,0,0,0,0,0,0,0,0],"sum_hessian":[1.1034058E2,5.91418E1,5.1198784E1,2.0241354E1,3.8900444E1,1.3757719E1,3.7441063E1,1.6208803E1,4.03255E0,1.9338074E1,1.956237E1,3.7291706E0,1.0028549E1,2.289422E1,1.4546844E1,1.4939331E1,1.2694724E0,2.5776777E0,1.4548723E0,1.5572005E1,3.7660687E0,4.3052588E0,1.52571125E1,7.5769196E0,2.4516294E0,2.2686572E0,2.0625565E1,1.2610346E1,1.9364974E0],"tree_param":{"num_deleted":"0","num_feature":"8","num_nodes":"29","size_leaf_vector":"1"}},{"base_weights":[-5.1952355E-2,-2.7175942E-1,9.2098564E-1,-9.710204E-1,-1.14855565E-1,4.5843226E-1,1.1243073E0,-1.0495431E0,-3.387229E-1,-7.5957596E-1,4.0573083E-2,7.99911E-1,-2.6596047E-2,3.53093E-2,9.490504E-2,-1.689274E-2,-8.921133E-2,-5.7335343E-2,1.5252435E-2,-7.5510904E-2,6.4055864E-3,-4.708567E-2,1.4029358E-2,7.8169346E-2,2.882816E-3],"categories":[],"categories_nodes":[],"categories_segments":[],"categories_sizes":[],"default_left":[0,0,0,0,0,0,0,0,0,0,0,0,0,0,0,0,0,0,0,0,0,0,0,0,0],"id":13,"left_children":[1,3,5,7,9,11,13,15,17,19,21,23,-1,-1,-1,-1,-1,-1,-1,-1,-1,-1,-1,-1,-1],"loss_changes":[2.370468E1,9.788589E0,1.4068089E0,4.5886707E-1,7.529488E0,2.4074254E0,4.8480988E-2,5.407448E-1,7.946234E-1,2.3329344E0,5.2970357E0,7.5419855E-1,0E0,0E0,0E0,0E0,0E0,0E0,0E0,0E0,0E0,0E0,0E0,0E0,0E0],"parents":[2147483647,0,0,1,1,2,2,3,3,4,4,5,5,6,6,7,7,8,8,9,9,10,10,11,11],"right_children":[2,4,6,8,10,12,14,16,18,20,22,24,-1,-1,-1,-1,-1,-1,-1,-1,-1,-1,-1,-1,-1],"split_conditions":[1.1117315E0,-8.42806E-1,1.5120071E0,3.1118053E-1,-3.5203305E-1,2.3246059E-1,-5.641557E-1,-1.1271224E0,-6.679015E-1,7.6529634E-1,-7.2286457E-1,1.3785819E0,-2.6596047E-2,3.53093E-2,9.490504E-2,-1.689274E-2,-8.921133E-2,-5.7335343E-2,1.5252435E-2,-7.5510904E-2,6.4055864E-3,-4.708567E-2,1.4029358E-2,7.8169346E-2,2.882816E-3],"split_indices":[1,5,1,1,4,4,5,4,6,6,1,1,0,0,0,0,0,0,0,0,0,0,0,0,0],"split_type":[0,0,0,0,0,0,0,0,0,0,0,0,0,0,0,0,0,0,0,0,0,0,0,0,0],"sum_hessian":[1.086724E2,8.923339E1,1.943901E1,1.5402348E1,7.383104E1,6.929416E0,1.2509595E1,1.3113893E1,2.2884548E0,1.3586609E1,6.0244434E1,4.8317857E0,2.0976307E0,1.7169535E0,1.0792642E1,1.2577786E0,1.1856114E1,1.1287243E0,1.1597304E0,1.103924E1,2.5473683E0,1.00359E1,5.0208534E1,3.6953683E0,1.1364173E0],"tree_param":{"num_deleted":"0","num_feature":"8","num_nodes":"25","size_leaf_vector":"1"}},{"base_weights":[2.2110755E-2,-3.7868923E-1,5.445435E-1,-8.7753646E-2,-1.8561064E-1,1.0695142E-3,7.28231E-1,-6.08943E-1,1.1936702E-1,-6.3957945E-2,2.6961514E-1,-2.4297489E-2,7.7315986E-1,-7.366724E-2,-3.3199623E-2,-8.0024585E-2,2.35175E-2,3.4217622E-2,-4.30673E-2,4.2762537E-2,8.2418345E-2],"categories":[],"categories_nodes":[],"categories_segments":[],"categories_sizes":[],"default_left":[0,0,0,0,0,0,0,0,0,0,0,0,0,0,0,0,0,0,0,0,0],"id":14,"left_children":[1,3,5,-1,7,9,11,13,15,-1,17,-1,19,-1,-1,-1,-1,-1,-1,-1,-1],"loss_changes":[2.2828537E1,8.356259E0,4.722415E0,0E0,6.5089045E0,3.0002341E0,1.8742428E0,8.905554E-1,6.1223426E0,0E0,1.5648042E0,0E0,1.5452118E0,0E0,0E0,0E0,0E0,0E0,0E0,0E0,0E0],"parents":[2147483647,0,0,1,1,2,2,4,4,5,5,6,6,7,7,8,8,10,10,12,12],"right_children":[2,4,6,-1,8,10,12,14,16,-1,18,-1,20,-1,-1,-1,-1,-1,-1,-1,-1],"split_conditions":[2.1111165E-1,-7.988086E-1,-3.2950285E-1,-8.7753646E-2,-4.538685E-1,-5.493724E-1,-4.1556495E-1,-1.9751063E-1,-6.5698624E-1,-6.3957945E-2,6.0470545E-1,-2.4297489E-2,1.2118005E0,-7.366724E-2,-3.3199623E-2,-8.0024585E-2,2.35175E-2,3.4217622E-2,-4.30673E-2,4.2762537E-2,8.2418345E-2],"split_indices":[1,5,5,0,7,0,4,5,4,0,6,0,1,0,0,0,0,0,0,0,0],"split_type":[0,0,0,0,0,0,0,0,0,0,0,0,0,0,0,0,0,0,0,0,0],"sum_hessian":[1.0703864E2,6.0726006E1,4.6312637E1,1.187417E1,4.8851837E1,1.1953069E1,3.435957E1,2.0039204E1,2.8812632E1,2.5058856E0,9.447183E0,1.1932137E0,3.3166355E1,6.246307E0,1.3792897E1,3.2489443E0,2.5563688E1,8.294656E0,1.1525271E0,1.879706E1,1.4369296E1],"tree_param":{"num_deleted":"0","num_feature":"8","num_nodes":"21","size_leaf_vector":"1"}},{"base_weights":[3.6212813E-2,-2.6611328E-1,6.0498315E-1,-5.4919666E-1,6.1344456E-2,-4.4008832E-2,6.58229E-1,-7.63259E-1,-1.3683672E-1,-7.128293E-1,1.8776464E-1,3.7003523E-1,9.359334E-1,-6.862581E-2,5.967419E-2,-4.6802502E-2,1.618333E-2,1.0618957E-2,-8.056355E-2,2.4334397E-2,-6.0994525E-2,-2.7840804E-2,4.303471E-2,8.102392E-2,-7.4649355E-3],"categories":[],"categories_nodes":[],"categories_segments":[],"categories_sizes":[],"default_left":[0,0,0,0,0,0,0,0,0,0,0,0,0,0,0,0,0,0,0,0,0,0,0,0,0],"id":15,"left_children":[1,3,5,7,9,-1,11,13,15,17,19,21,23,-1,-1,-1,-1,-1,-1,-1,-1,-1,-1,-1,-1],"loss_changes":[1.8923819E1,6.7023582E0,2.71004E0,3.3102856E0,3.4864352E0,0E0,2.6107597E0,4.2429523E0,2.3128364E0,1.3817997E0,3.5767775E0,2.5725496E0,1.5314302E0,0E0,0E0,0E0,0E0,0E0,0E0,0E0,0E0,0E0,0E0,0E0,0E0],"parents":[2147483647,0,0,1,1,2,2,3,3,4,4,6,6,7,7,8,8,9,9,10,10,11,11,12,12],"right_children":[2,4,6,8,10,-1,12,14,16,18,20,22,24,-1,-1,-1,-1,-1,-1,-1,-1,-1,-1,-1,-1],"split_conditions":[4.112494E-1,-2.0014292E-1,-6.8239903E-1,9.566266E-2,-4.028586E-1,-4.4008832E-2,1.2118005E0,9.60541E-1,-5.894394E-1,1.3815784E-1,1.9988121E0,-7.739521E-1,2.5062633E0,-6.862581E-2,5.967419E-2,-4.6802502E-2,1.618333E-2,1.0618957E-2,-8.056355E-2,2.4334397E-2,-6.0994525E-2,-2.7840804E-2,4.303471E-2,8.102392E-2,-7.4649355E-3],"split_indices":[1,7,4,6,4,0,1,0,1,7,7,6,7,0,0,0,0,0,0,0,0,0,0,0,0],"split_type":[0,0,0,0,0,0,0,0,0,0,0,0,0,0,0,0,0,0,0,0,0,0,0,0,0],"sum_hessian":[1.0811531E2,7.0939835E1,3.7175472E1,3.76847E1,3.3255135E1,1.226952E0,3.594852E1,2.424684E1,1.34378605E1,4.017028E0,2.9238106E1,1.8785719E1,1.7162802E1,2.3223299E1,1.0235415E0,5.4758434E0,7.9620175E0,1.1786017E0,2.8384264E0,2.6652584E1,2.5855222E0,3.3568554E0,1.5428863E1,1.5984997E1,1.1778059E0],"tree_param":{"num_deleted":"0","num_feature":"8","num_nodes":"25","size_leaf_vector":"1"}},{"base_weights":[-3.8334202E-2,-3.8013402E-1,4.9535286E-1,-7.388778E-1,-1.1583023E-1,1.8822657E-1,8.911365E-1,-8.5103285E-1,-1.9228442E-2,-8.049118E-2,2.2069255E-2,2.7994898E-1,-4.2654347E-2,9.677732E-1,-7.1454695E-3,-4.6745962E-3,-7.251739E-2,4.5717828E-2,-3.3653665E-2,-1.4021126E-2,3.144867E-2,4.9899876E-2,-6.348081E-3,8.381535E-2,4.1418695E-3],"categories":[],"categories_nodes":[],"categories_segments":[],"categories_sizes":[],"default_left":[0,0,0,0,0,0,0,0,0,0,0,0,0,0,0,0,0,0,0,0,0,0,0,0,0],"id":16,"left_children":[1,3,5,7,9,11,13,15,17,-1,19,21,-1,23,-1,-1,-1,-1,-1,-1,-1,-1,-1,-1,-1],"loss_changes":[1.8875698E1,5.8893375E0,4.7467337E0,2.1262093E0,4.622429E0,1.7394636E0,1.3936615E0,9.5510674E-1,1.3317759E0,0E0,2.5160446E0,2.7642758E0,0E0,1.1332016E0,0E0,0E0,0E0,0E0,0E0,0E0,0E0,0E0,0E0,0E0,0E0],"parents":[2147483647,0,0,1,1,2,2,3,3,4,4,5,5,6,6,7,7,8,8,10,10,11,11,13,13],"right_children":[2,4,6,8,10,12,14,16,18,-1,20,22,-1,24,-1,-1,-1,-1,-1,-1,-1,-1,-1,-1,-1],"split_conditions":[2.7782422E-1,-4.538685E-1,1.2118005E0,8.039004E-1,-6.315735E-1,2.337113E0,2.5062633E0,-1.8051243E0,-1.9955644E-1,-8.049118E-2,2.2034219E-1,7.1145606E-1,-4.2654347E-2,1.6192207E0,-7.1454695E-3,-4.6745962E-3,-7.251739E-2,4.5717828E-2,-3.3653665E-2,-1.4021126E-2,3.144867E-2,4.9899876E-2,-6.348081E-3,8.381535E-2,4.1418695E-3],"split_indices":[1,7,1,2,4,7,7,2,4,0,3,1,0,2,0,0,0,0,0,0,0,0,0,0,0],"split_type":[0,0,0,0,0,0,0,0,0,0,0,0,0,0,0,0,0,0,0,0,0,0,0,0,0],"sum_hessian":[1.01444885E2,6.2015068E1,3.942982E1,2.5545794E1,3.6469273E1,2.3032381E1,1.6397442E1,2.1943415E1,3.6023786E0,4.0467E0,3.2422573E1,2.0977196E1,2.055184E0,1.5220662E1,1.176779E0,1.5686715E0,2.0374743E1,1.286222E0,2.3161566E0,2.1510223E1,1.0912352E1,1.0343711E1,1.0633486E1,1.3867028E1,1.3536339E0],"tree_param":{"num_deleted":"0","num_feature":"8","num_nodes":"25","size_leaf_vector":"1"}},{"base_weights":[3.755843E-4,-4.179419E-1,2.669146E-1,-6.2119347E-1,3.6827478E-1,-2.587575E-1,4.6274403E-1,-9.5606893E-1,-3.2173672E-1,-1.7890821E-1,8.6455636E-2,-4.37257E-2,-7.6980546E-2,-6.589256E-2,5.42562E-1,-8.282311E-2,-3.482289E-2,-5.630833E-2,-1.068862E-2,-3.769762E-2,4.6386495E-2,-7.167458E-2,1.1437834E-2,-5.4646123E-2,4.7359884E-2],"categories":[],"categories_nodes":[],"categories_segments":[],"categories_sizes":[],"default_left":[0,0,0,0,0,0,0,0,0,0,0,0,0,0,0,0,0,0,0,0,0,0,0,0,0],"id":17,"left_children":[1,3,5,7,9,11,13,15,17,19,-1,21,-1,-1,23,-1,-1,-1,-1,-1,-1,-1,-1,-1,-1],"loss_changes":[1.1506829E1,6.647217E0,6.6088047E0,2.9301758E0,3.6543672E0,2.6431382E0,5.1993856E0,1.5726471E-1,1.2396266E0,1.5772381E0,0E0,2.4578323E0,0E0,0E0,3.0815697E0,0E0,0E0,0E0,0E0,0E0,0E0,0E0,0E0,0E0,0E0],"parents":[2147483647,0,0,1,1,2,2,3,3,4,4,5,5,6,6,7,7,8,8,9,9,11,11,14,14],"right_children":[2,4,6,8,10,12,14,16,18,20,-1,22,-1,-1,24,-1,-1,-1,-1,-1,-1,-1,-1,-1,-1],"split_conditions":[-2.2252016E-1,9.60541E-1,-3.5883448E-1,-2.5617385E-1,3.6230412E-1,6.0470545E-1,-5.299224E-1,6.622758E-1,-9.563586E-1,-4.893705E-1,8.6455636E-2,-1.3561091E0,-7.6980546E-2,-6.589256E-2,-1.4679703E0,-8.282311E-2,-3.482289E-2,-5.630833E-2,-1.068862E-2,-3.769762E-2,4.6386495E-2,-7.167458E-2,1.1437834E-2,-5.4646123E-2,4.7359884E-2],"split_indices":[1,0,5,5,6,6,4,6,1,1,0,5,0,0,3,0,0,0,0,0,0,0,0,0,0],"split_type":[0,0,0,0,0,0,0,0,0,0,0,0,0,0,0,0,0,0,0,0,0,0,0,0,0],"sum_hessian":[1.0120166E2,3.916556E1,6.2036102E1,3.128715E1,7.8784113E0,1.6750574E1,4.5285526E1,1.3734972E1,1.7552177E1,4.8795156E0,2.9988956E0,1.3642698E1,3.1078768E0,2.1012437E0,4.3184284E1,1.1064001E1,2.670971E0,4.886218E0,1.266596E1,3.796008E0,1.0835075E0,1.7690157E0,1.1873682E1,1.177377E0,4.2006905E1],"tree_param":{"num_deleted":"0","num_feature":"8","num_nodes":"25","size_leaf_vector":"1"}},{"base_weights":[2.0470217E-2,-2.7124777E-1,5.3800017E-1,-7.0834756E-1,-7.481014E-2,2.3676446E-1,7.996641E-1,-8.7999064E-1,3.885928E-1,-3.161007E-1,3.278282E-1,-4.9257824E-1,3.581006E-1,8.582587E-1,-7.5492146E-3,-7.752089E-2,1.9950997E-2,6.03993E-2,-6.4523835E-3,-8.307709E-2,-1.0494634E-2,-3.9746817E-2,3.9126623E-2,6.0000615E-3,-6.674532E-2,4.1859373E-2,-1.896717E-2,7.399317E-2,-7.161499E-3],"categories":[],"categories_nodes":[],"categories_segments":[],"categories_sizes":[],"default_left":[0,0,0,0,0,0,0,0,0,0,0,0,0,0,0,0,0,0,0,0,0,0,0,0,0,0,0,0,0],"id":18,"left_children":[1,3,5,7,9,11,13,15,17,19,21,23,25,27,-1,-1,-1,-1,-1,-1,-1,-1,-1,-1,-1,-1,-1,-1,-1],"loss_changes":[1.5829317E1,5.708364E0,2.7887926E0,4.236973E0,4.7098756E0,1.8563843E0,1.1181555E0,2.0708847E0,6.6140014E-1,3.89185E0,2.6708348E0,6.694312E-1,1.7807617E0,1.2629061E0,0E0,0E0,0E0,0E0,0E0,0E0,0E0,0E0,0E0,0E0,0E0,0E0,0E0,0E0,0E0],"parents":[2147483647,0,0,1,1,2,2,3,3,4,4,5,5,6,6,7,7,8,8,9,9,10,10,11,11,12,12,13,13],"right_children":[2,4,6,8,10,12,14,16,18,20,22,24,26,28,-1,-1,-1,-1,-1,-1,-1,-1,-1,-1,-1,-1,-1,-1,-1],"split_conditions":[4.112494E-1,-7.2286457E-1,1.1117315E0,8.147594E-1,9.566266E-2,-3.4242862E-1,5.111712E0,1.8742825E0,-2.952095E-1,-3.012075E-1,-9.082721E-1,-6.982017E-1,9.449501E-1,1.7822847E0,-7.5492146E-3,-7.752089E-2,1.9950997E-2,6.03993E-2,-6.4523835E-3,-8.307709E-2,-1.0494634E-2,-3.9746817E-2,3.9126623E-2,6.0000615E-3,-6.674532E-2,4.1859373E-2,-1.896717E-2,7.399317E-2,-7.161499E-3],"split_indices":[1,1,1,7,6,3,4,6,6,4,2,6,1,2,0,0,0,0,0,0,0,0,0,0,0,0,0,0,0],"split_type":[0,0,0,0,0,0,0,0,0,0,0,0,0,0,0,0,0,0,0,0,0,0,0,0,0,0,0,0,0],"sum_hessian":[1.02882195E2,6.609952E1,3.6782677E1,1.9687113E1,4.6412403E1,1.7983896E1,1.879878E1,1.7194407E1,2.4927063E0,2.9155315E1,1.7257088E1,2.1287167E0,1.5855179E1,1.7680042E1,1.118739E0,1.6069744E1,1.1246629E0,1.0578076E0,1.4348986E0,5.001529E0,2.4153788E1,2.4821577E0,1.477493E1,1.0933495E0,1.0353673E0,1.2506113E1,3.3490663E0,1.6540869E1,1.1391737E0],"tree_param":{"num_deleted":"0","num_feature":"8","num_nodes":"29","size_leaf_vector":"1"}},{"base_weights":[-1.1624747E-2,-2.4605994E-1,4.0059295E-1,-9.673356E-1,-8.962311E-2,1.5206842E-1,7.351676E-1,-1.0178859E-2,-8.381879E-2,-3.8713267E-1,2.0150787E-1,-3.9539035E-2,9.010702E-1,1.01255E0,-4.0645784E-1,-4.009981E-2,7.829972E-2,-7.108409E-2,2.4046276E-2,1.0294208E-2,-7.411287E-2,2.2605734E-2,8.244399E-2,8.937884E-2,-1.6668024E-3,3.091379E-2,-7.0889995E-2],"categories":[],"categories_nodes":[],"categories_segments":[],"categories_sizes":[],"default_left":[0,0,0,0,0,0,0,0,0,0,0,0,0,0,0,0,0,0,0,0,0,0,0,0,0,0,0],"id":19,"left_children":[1,3,5,7,9,11,13,-1,-1,15,17,19,21,23,25,-1,-1,-1,-1,-1,-1,-1,-1,-1,-1,-1,-1],"loss_changes":[9.791688E0,7.1977615E0,2.943469E0,6.369848E-1,4.768572E0,3.2423153E0,5.2882233E0,0E0,0E0,4.718684E0,3.2939441E0,2.9165149E0,7.666826E-2,1.3945837E0,1.7586846E0,0E0,0E0,0E0,0E0,0E0,0E0,0E0,0E0,0E0,0E0,0E0,0E0],"parents":[2147483647,0,0,1,1,2,2,3,3,4,4,5,5,6,6,9,9,10,10,11,11,12,12,13,13,14,14],"right_children":[2,4,6,8,10,12,14,-1,-1,16,18,20,22,24,26,-1,-1,-1,-1,-1,-1,-1,-1,-1,-1,-1,-1],"split_conditions":[4.112494E-1,-7.988086E-1,4.037873E-1,-1.114416E0,-2.0014292E-1,7.380262E-1,1.8136821E0,-1.0178859E-2,-8.381879E-2,1.8996992E0,-9.709032E-1,4.653247E-1,8.115249E-1,2.0212088E0,-6.230189E-1,-4.009981E-2,7.829972E-2,-7.108409E-2,2.4046276E-2,1.0294208E-2,-7.411287E-2,2.2605734E-2,8.244399E-2,8.937884E-2,-1.6668024E-3,3.091379E-2,-7.0889995E-2],"split_indices":[1,5,5,4,7,6,6,0,0,5,6,6,1,3,7,0,0,0,0,0,0,0,0,0,0,0,0],"split_type":[0,0,0,0,0,0,0,0,0,0,0,0,0,0,0,0,0,0,0,0,0,0,0,0,0,0,0],"sum_hessian":[9.930303E1,6.355902E1,3.574401E1,1.0404402E1,5.3154617E1,2.1344025E1,1.4399986E1,1.134322E0,9.27008E0,2.6126223E1,2.7028397E1,1.7750383E1,3.593641E0,1.1676092E1,2.7238941E0,2.4695972E1,1.4302495E0,1.5879165E0,2.544048E1,1.5638983E1,2.1114018E0,1.1729687E0,2.4206722E0,1.0528387E1,1.147705E0,1.100004E0,1.62389E0],"tree_param":{"num_deleted":"0","num_feature":"8","num_nodes":"27","size_leaf_vector":"1"}},{"base_weights":[-8.117481E-3,-3.274408E-1,3.2811183E-1,-4.7962132E-1,2.4390173E-1,-1.7581318E-1,5.198395E-1,-7.262328E-1,-2.555507E-1,-6.1876792E-2,5.1417696E-1,-5.6721336E-1,3.1573313E-1,6.9230336E-1,6.929794E-2,-7.362012E-2,-3.3073805E-2,-4.1444696E-2,1.0682678E-2,1.1796393E-1,5.2004163E-3,-7.8766905E-2,-1.9432416E-2,5.6747317E-2,-3.3726655E-2,-1.2393368E-2,6.7700975E-2,-3.4084745E-2,5.492563E-2],"categories":[],"categories_nodes":[],"categories_segments":[],"categories_sizes":[],"default_left":[0,0,0,0,0,0,0,0,0,0,0,0,0,0,0,0,0,0,0,0,0,0,0,0,0,0,0,0,0],"id":20,"left_children":[1,3,5,7,9,11,13,15,17,-1,19,21,23,25,27,-1,-1,-1,-1,-1,-1,-1,-1,-1,-1,-1,-1,-1,-1],"loss_changes":[1.0915734E1,4.649759E0,4.8773255E0,2.1078806E0,3.595039E0,2.9494529E0,2.7598495E0,7.8575325E-1,2.4478624E0,0E0,4.126425E0,8.943269E-1,2.3379745E0,3.5252333E0,3.6910148E0,0E0,0E0,0E0,0E0,0E0,0E0,0E0,0E0,0E0,0E0,0E0,0E0,0E0,0E0],"parents":[2147483647,0,0,1,1,2,2,3,3,4,4,5,5,6,6,7,7,8,8,10,10,11,11,12,12,13,13,14,14],"right_children":[2,4,6,8,10,12,14,16,18,-1,20,22,24,26,28,-1,-1,-1,-1,-1,-1,-1,-1,-1,-1,-1,-1,-1,-1],"split_conditions":[1.11042775E-1,9.60541E-1,-3.5883448E-1,-2.152099E-2,-8.5747176E-1,8.115249E-1,8.42367E-1,-2.4738972E-1,9.566266E-2,-6.1876792E-2,-3.4416866E-1,-6.679015E-1,-5.7882154E-1,-8.315224E-1,3.5657564E-1,-7.362012E-2,-3.3073805E-2,-4.1444696E-2,1.0682678E-2,1.1796393E-1,5.2004163E-3,-7.8766905E-2,-1.9432416E-2,5.6747317E-2,-3.3726655E-2,-1.2393368E-2,6.7700975E-2,-3.4084745E-2,5.492563E-2],"split_indices":[1,0,5,5,5,1,4,0,6,0,5,6,5,6,0,0,0,0,0,0,0,0,0,0,0,0,0,0,0],"split_type":[0,0,0,0,0,0,0,0,0,0,0,0,0,0,0,0,0,0,0,0,0,0,0,0,0,0,0,0,0],"sum_hessian":[9.966793E1,5.1132534E1,4.8535393E1,4.0504463E1,1.0628072E1,1.3399637E1,3.5135757E1,1.8215473E1,2.228899E1,1.840053E0,8.788019E0,7.374032E0,6.0256057E0,2.5021223E1,1.0114532E1,1.0043913E1,8.17156E0,1.311145E1,9.177539E0,2.0729773E0,6.7150416E0,2.33413E0,5.0399017E0,3.9531832E0,2.0724225E0,3.8467443E0,2.1174479E1,5.783268E0,4.3312645E0],"tree_param":{"num_deleted":"0","num_feature":"8","num_nodes":"29","size_leaf_vector":"1"}},{"base_weights":[-5.0366346E-2,-2.0391923E-1,6.1489016E-1,-8.4492224E-1,-8.49255E-2,4.195793E-1,9.5249057E-1,-9.340893E-1,-2.5976276E-1,-8.064831E-1,3.0217221E-2,5.5798374E-2,6.129619E-1,8.487083E-2,2.0491159E-2,-3.138679E-2,-8.0703646E-2,-5.1886782E-2,1.9936383E-2,-7.7109635E-2,1.8157395E-2,-1.1489601E-2,4.438089E-2,2.6305722E-2,-4.965698E-2,6.642074E-2,-2.0844078E-2],"categories":[],"categories_nodes":[],"categories_segments":[],"categories_sizes":[],"default_left":[0,0,0,0,0,0,0,0,0,0,0,0,0,0,0,0,0,0,0,0,0,0,0,0,0,0,0],"id":21,"left_children":[1,3,5,7,9,11,13,15,17,19,21,23,25,-1,-1,-1,-1,-1,-1,-1,-1,-1,-1,-1,-1,-1,-1],"loss_changes":[1.0207535E1,6.1019306E0,8.371997E-1,4.1275692E-1,5.7884755E0,9.275055E-1,1.8774939E-1,2.9777527E-2,7.6446325E-1,1.7775669E0,5.623263E0,1.2836884E0,1.8915241E0,0E0,0E0,0E0,0E0,0E0,0E0,0E0,0E0,0E0,0E0,0E0,0E0,0E0,0E0],"parents":[2147483647,0,0,1,1,2,2,3,3,4,4,5,5,6,6,7,7,8,8,9,9,10,10,11,11,12,12],"right_children":[2,4,6,8,10,12,14,16,18,20,22,24,26,-1,-1,-1,-1,-1,-1,-1,-1,-1,-1,-1,-1,-1,-1],"split_conditions":[1.1117315E0,-8.281402E-1,9.60541E-1,3.1118053E-1,-9.8971486E-1,1.5120071E0,1.866489E0,-1.6930786E0,-2.4738972E-1,9.380073E-1,9.60541E-1,1.4119382E0,1.8136821E0,8.487083E-2,2.0491159E-2,-3.138679E-2,-8.0703646E-2,-5.1886782E-2,1.9936383E-2,-7.7109635E-2,1.8157395E-2,-1.1489601E-2,4.438089E-2,2.6305722E-2,-4.965698E-2,6.642074E-2,-2.0844078E-2],"split_indices":[1,5,0,1,1,1,0,3,0,6,0,1,6,0,0,0,0,0,0,0,0,0,0,0,0,0,0],"split_type":[0,0,0,0,0,0,0,0,0,0,0,0,0,0,0,0,0,0,0,0,0,0,0,0,0,0,0],"sum_hessian":[9.769745E1,7.993948E1,1.7757965E1,1.1561061E1,6.8378426E1,1.2670544E1,5.087421E0,9.514878E0,2.0461826E0,8.583644E0,5.979478E1,4.8449755E0,7.825568E0,3.9491925E0,1.1382287E0,1.9106864E0,7.6041923E0,1.004493E0,1.0416896E0,7.5076146E0,1.0760299E0,4.545643E1,1.4338353E1,3.8180492E0,1.0269265E0,6.30631E0,1.5192577E0],"tree_param":{"num_deleted":"0","num_feature":"8","num_nodes":"27","size_leaf_vector":"1"}},{"base_weights":[-7.747206E-2,-2.5166884E-1,1.7994809E-1,-5.3863174E-1,-2.934282E-3,4.6351425E-2,7.6173824E-1,-5.005854E-2,-6.623486E-1,7.089099E-1,-1.2787662E-1,7.201905E-1,-6.831664E-2,8.969403E-1,9.852684E-3,-4.6503086E-2,3.6985014E-2,-6.1894845E-2,-2.4789725E-3,7.8453936E-2,1.7066582E-3,2.9130777E-2,-2.2444438E-2,1.0142348E-1,-4.4533804E-2,-1.7243352E-4,-6.452306E-2,1.7221237E-2,8.7074585E-2],"categories":[],"categories_nodes":[],"categories_segments":[],"categories_sizes":[],"default_left":[0,0,0,0,0,0,0,0,0,0,0,0,0,0,0,0,0,0,0,0,0,0,0,0,0,0,0,0,0],"id":22,"left_children":[1,3,5,7,9,11,13,15,17,19,21,23,25,27,-1,-1,-1,-1,-1,-1,-1,-1,-1,-1,-1,-1,-1,-1,-1],"loss_changes":[4.3743396E0,4.1379347E0,3.0384164E0,1.5941691E0,2.9431272E0,2.6164787E0,5.215516E-1,2.0438356E0,1.4803782E0,9.0245414E-1,2.2153165E0,4.144805E0,1.4296752E0,5.3351927E-1,0E0,0E0,0E0,0E0,0E0,0E0,0E0,0E0,0E0,0E0,0E0,0E0,0E0,0E0,0E0],"parents":[2147483647,0,0,1,1,2,2,3,3,4,4,5,5,6,6,7,7,8,8,9,9,10,10,11,11,12,12,13,13],"right_children":[2,4,6,8,10,12,14,16,18,20,22,24,26,28,-1,-1,-1,-1,-1,-1,-1,-1,-1,-1,-1,-1,-1,-1,-1],"split_conditions":[5.6272443E-2,-2.0014292E-1,1.2625237E0,-8.513551E-1,-5.493724E-1,2.0474325E-1,1.6470312E0,-7.921693E-1,3.5657564E-1,1.068485E0,-8.8303274E-1,-7.249261E-2,1.6192207E0,3.926043E-1,9.852684E-3,-4.6503086E-2,3.6985014E-2,-6.1894845E-2,-2.4789725E-3,7.8453936E-2,1.7066582E-3,2.9130777E-2,-2.2444438E-2,1.0142348E-1,-4.4533804E-2,-1.7243352E-4,-6.452306E-2,1.7221237E-2,8.7074585E-2],"split_indices":[6,7,0,0,0,6,6,7,0,7,6,4,2,6,0,0,0,0,0,0,0,0,0,0,0,0,0,0,0],"split_type":[0,0,0,0,0,0,0,0,0,0,0,0,0,0,0,0,0,0,0,0,0,0,0,0,0,0,0,0,0],"sum_hessian":[9.5540634E1,5.6994602E1,3.8546032E1,2.5922523E1,3.1072079E1,3.2225704E1,6.320328E0,5.5216136E0,2.040091E1,3.9415672E0,2.713051E1,3.918463E0,2.830724E1,4.8820906E0,1.4382375E0,2.6448784E0,2.8767352E0,1.7151005E1,3.2499044E0,2.5194716E0,1.4220957E0,6.097192E0,2.103332E1,2.74733E0,1.171133E0,2.6899372E1,1.4078671E0,1.536521E0,3.3455698E0],"tree_param":{"num_deleted":"0","num_feature":"8","num_nodes":"29","size_leaf_vector":"1"}},{"base_weights":[-6.4570576E-2,-2.0491414E-1,6.156095E-1,-2.6192886E-1,8.326175E-1,7.0294464E-1,-2.9521151E-3,-3.9563698E-1,1.7852823E-1,1.0104908E-1,-1.5991153E-2,1.7479722E-1,9.974835E-1,-3.952245E-2,2.3163592E-2,-6.494792E-2,3.681441E-2,4.02305E-2,-2.2157202E-2,9.443892E-3,9.106429E-2],"categories":[],"categories_nodes":[],"categories_segments":[],"categories_sizes":[],"default_left":[0,0,0,0,0,0,0,0,0,0,0,0,0,0,0,0,0,0,0,0,0],"id":23,"left_children":[1,3,5,7,9,11,-1,13,15,-1,-1,17,19,-1,-1,-1,-1,-1,-1,-1,-1],"loss_changes":[9.235112E0,4.9416924E0,9.70274E-1,4.5731626E0,2.207695E0,2.1068912E0,0E0,4.1179905E0,5.532065E0,0E0,0E0,1.097165E0,1.0052204E0,0E0,0E0,0E0,0E0,0E0,0E0,0E0,0E0],"parents":[2147483647,0,0,1,1,2,2,3,3,4,4,5,5,7,7,8,8,11,11,12,12],"right_children":[2,4,6,8,10,12,-1,14,16,-1,-1,18,20,-1,-1,-1,-1,-1,-1,-1,-1],"split_conditions":[1.1117315E0,1.8996992E0,1.8136821E0,8.147594E-1,1.0167878E0,1.5120071E0,-2.9521151E-3,1.1137482E0,-7.739521E-1,1.0104908E-1,-1.5991153E-2,-3.437346E-2,-5.641557E-1,-3.952245E-2,2.3163592E-2,-6.494792E-2,3.681441E-2,4.02305E-2,-2.2157202E-2,9.443892E-3,9.106429E-2],"split_indices":[1,5,6,7,6,1,0,6,6,0,0,4,5,0,0,0,0,0,0,0,0],"split_type":[0,0,0,0,0,0,0,0,0,0,0,0,0,0,0,0,0,0,0,0,0],"sum_hessian":[9.4422905E1,7.88519E1,1.5571008E1,7.545312E1,3.3987749E0,1.3664761E1,1.9062477E0,5.7960117E1,1.7493002E1,2.2410426E0,1.1577322E0,5.462761E0,8.202E0,5.0926006E1,7.0341134E0,3.4564774E0,1.4036524E1,3.099008E0,2.3637526E0,1.3858063E0,6.816193E0],"tree_param":{"num_deleted":"0","num_feature":"8","num_nodes":"21","size_leaf_vector":"1"}},{"base_weights":[-2.763037E-3,-5.7160354E-1,1.392534E-1,8.440754E-3,-6.2524E-1,-5.1151466E-1,2.116072E-1,-7.872419E-2,-4.51995E-1,-7.112731E-1,4.772856E-3,1.24001965E-1,8.723284E-1,2.4892334E-2,-4.2846702E-2,-7.174372E-2,-2.682759E-2,3.3383962E-4,3.9387666E-2,8.404956E-2,-1.50100095E-2],"categories":[],"categories_nodes":[],"categories_segments":[],"categories_sizes":[],"default_left":[0,0,0,0,0,0,0,0,0,0,0,0,0,0,0,0,0,0,0,0,0],"id":24,"left_children":[1,3,5,-1,7,9,11,-1,13,15,-1,17,19,-1,-1,-1,-1,-1,-1,-1,-1],"loss_changes":[7.8866057E0,7.742696E-1,3.7873607E0,0E0,6.875434E-1,9.6785593E-1,4.003008E0,0E0,1.0682623E0,1.2376428E-1,0E0,2.8173616E0,1.7371583E0,0E0,0E0,0E0,0E0,0E0,0E0,0E0,0E0],"parents":[2147483647,0,0,1,1,2,2,4,4,5,5,6,6,8,8,9,9,11,11,12,12],"right_children":[2,4,6,-1,8,10,12,-1,14,16,-1,18,20,-1,-1,-1,-1,-1,-1,-1,-1],"split_conditions":[-6.6681635E-1,-1.1271224E0,-6.061607E-1,8.440754E-3,-1.3414433E0,2.3317628E-1,1.5183884E0,-7.872419E-2,-1.28278E0,7.445254E-2,4.772856E-3,8.147594E-1,1.1854393E0,2.4892334E-2,-4.2846702E-2,-7.174372E-2,-2.682759E-2,3.3383962E-4,3.9387666E-2,8.404956E-2,-1.50100095E-2],"split_indices":[5,4,4,0,5,2,5,0,5,6,0,7,4,0,0,0,0,0,0,0,0],"split_type":[0,0,0,0,0,0,0,0,0,0,0,0,0,0,0,0,0,0,0,0,0],"sum_hessian":[9.563969E1,1.8502766E1,7.7136925E1,1.2871027E0,1.7215662E1,7.1108203E0,7.00261E1,4.081741E0,1.3133922E1,5.086595E0,2.0242255E0,6.2876907E1,7.149193E0,1.0278077E0,1.2106114E1,2.4780877E0,2.6085072E0,4.820596E1,1.4670948E1,6.127341E0,1.0218523E0],"tree_param":{"num_deleted":"0","num_feature":"8","num_nodes":"21","size_leaf_vector":"1"}},{"base_weights":[-1.5526427E-3,-3.6368707E-1,2.2299717E-1,-5.7991004E-1,2.3471802E-1,1.143974E-1,8.167829E-1,-8.254295E-2,-3.350168E-1,-3.2885438E-1,7.879787E-1,-2.3106791E-2,7.1495724E-1,1.0272487E0,-3.1560953E-3,-5.8912385E-2,-8.705639E-3,2.4446327E-2,-6.363077E-2,7.990186E-2,-5.7783434E-3,-1.585595E-2,3.067972E-2,6.715299E-2,-1.0304427E-2,2.3584297E-2,8.921492E-2],"categories":[],"categories_nodes":[],"categories_segments":[],"categories_sizes":[],"default_left":[0,0,0,0,0,0,0,0,0,0,0,0,0,0,0,0,0,0,0,0,0,0,0,0,0,0,0],"id":25,"left_children":[1,3,5,7,9,11,13,-1,15,17,19,21,23,25,-1,-1,-1,-1,-1,-1,-1,-1,-1,-1,-1,-1,-1],"loss_changes":[7.74581E0,4.8531613E0,3.6983144E0,2.649726E0,3.4982305E0,4.2174993E0,1.6495347E0,0E0,1.6481235E0,1.9750664E0,1.076071E0,3.091966E0,1.1066599E0,1.3524103E-1,0E0,0E0,0E0,0E0,0E0,0E0,0E0,0E0,0E0,0E0,0E0,0E0,0E0],"parents":[2147483647,0,0,1,1,2,2,3,3,4,4,5,5,6,6,8,8,9,9,10,10,11,11,12,12,13,13],"right_children":[2,4,6,8,10,12,14,-1,16,18,20,22,24,26,-1,-1,-1,-1,-1,-1,-1,-1,-1,-1,-1,-1,-1],"split_conditions":[-2.2252016E-1,4.9259484E-1,1.4010619E0,-4.0283188E-1,1.0778803E-1,1.5120071E0,1.0167878E0,-8.254295E-2,-8.89646E-1,-9.0519947E-1,1.254404E0,8.147594E-1,1.8136821E0,-7.49712E-1,-3.1560953E-3,-5.8912385E-2,-8.705639E-3,2.4446327E-2,-6.363077E-2,7.990186E-2,-5.7783434E-3,-1.585595E-2,3.067972E-2,6.715299E-2,-1.0304427E-2,2.3584297E-2,8.921492E-2],"split_indices":[1,6,5,5,3,1,6,0,1,3,5,7,6,6,0,0,0,0,0,0,0,0,0,0,0,0,0],"split_type":[0,0,0,0,0,0,0,0,0,0,0,0,0,0,0,0,0,0,0,0,0,0,0,0,0,0,0],"sum_hessian":[9.325689E1,3.5456345E1,5.7800545E1,2.6068035E1,9.38831E0,4.987193E1,7.928612E0,8.032766E0,1.8035269E1,4.8517447E0,4.5365653E0,4.1362984E1,8.508945E0,6.2039313E0,1.7246809E0,5.6873674E0,1.2347901E1,2.202104E0,2.6496406E0,3.5143E0,1.0222652E0,2.9270845E1,1.209214E1,7.419695E0,1.0892506E0,1.1315466E0,5.072385E0],"tree_param":{"num_deleted":"0","num_feature":"8","num_nodes":"27","size_leaf_vector":"1"}},{"base_weights":[9.005755E-3,-5.181029E-1,1.3929287E-1,-7.3489404E-1,-3.9065216E-2,-4.767243E-1,2.0586744E-1,-8.088333E-1,-1.8677633E-2,5.2986413E-1,-5.9082603E-1,3.0405756E-2,-7.659736E-1,1.4336504E-1,9.731795E-1,-8.0319E-2,-3.4120865E-2,1.590266E-2,5.581967E-2,1.3512428E-3,-6.976075E-2,-6.968486E-2,-1.1086307E-2,-4.749099E-3,3.408494E-2,1.0139668E-1,2.1974786E-4],"categories":[],"categories_nodes":[],"categories_segments":[],"categories_sizes":[],"default_left":[0,0,0,0,0,0,0,0,0,0,0,0,0,0,0,0,0,0,0,0,0,0,0,0,0,0,0],"id":26,"left_children":[1,3,5,7,9,11,13,15,-1,17,19,-1,21,23,25,-1,-1,-1,-1,-1,-1,-1,-1,-1,-1,-1,-1],"loss_changes":[6.5093017E0,1.9224944E0,3.212696E0,2.8863525E-1,2.4821455E0,2.201528E0,3.1809402E0,3.789258E-1,0E0,7.9693675E-2,6.949413E-1,0E0,2.811184E-1,3.7615805E0,1.4364376E0,0E0,0E0,0E0,0E0,0E0,0E0,0E0,0E0,0E0,0E0,0E0,0E0],"parents":[2147483647,0,0,1,1,2,2,3,3,4,4,5,5,6,6,7,7,9,9,10,10,12,12,13,13,14,14],"right_children":[2,4,6,8,10,12,14,16,-1,18,20,-1,22,24,26,-1,-1,-1,-1,-1,-1,-1,-1,-1,-1,-1,-1],"split_conditions":[-6.6681635E-1,8.147594E-1,-6.061607E-1,-7.401454E-1,1.9142369E0,-8.513551E-1,1.8996992E0,-2.3157914E-1,-1.8677633E-2,-9.308008E-1,-1.2534485E0,3.0405756E-2,-7.586373E-1,9.566266E-2,8.89527E-1,-8.0319E-2,-3.4120865E-2,1.590266E-2,5.581967E-2,1.3512428E-3,-6.976075E-2,-6.968486E-2,-1.1086307E-2,-4.749099E-3,3.408494E-2,1.0139668E-1,2.1974786E-4],"split_indices":[5,7,4,5,7,0,5,6,0,5,5,0,4,6,6,0,0,0,0,0,0,0,0,0,0,0,0],"split_type":[0,0,0,0,0,0,0,0,0,0,0,0,0,0,0,0,0,0,0,0,0,0,0,0,0,0,0],"sum_hessian":[9.2732666E1,1.7788458E1,7.494421E1,1.1878617E1,5.9098396E0,6.7085915E0,6.823562E1,9.817821E0,2.0607963E0,2.9291904E0,2.9806495E0,1.613926E0,5.0946655E0,6.41935E1,4.042124E0,5.423436E0,4.3943844E0,1.720415E0,1.2087754E0,1.2401867E0,1.7404628E0,4.0310893E0,1.0635761E0,3.7844368E1,2.6349125E1,2.866727E0,1.1753967E0],"tree_param":{"num_deleted":"0","num_feature":"8","num_nodes":"27","size_leaf_vector":"1"}},{"base_weights":[2.1239031E-2,-1.1714394E-1,6.358633E-1,-8.183155E-1,5.151047E-3,6.950208E-1,-1.1335042E-2,-5.7720146E-3,-8.8624626E-1,-6.4790905E-2,9.614739E-1,2.05002E-1,7.845114E-1,-7.477305E-2,-2.2782631E-2,-5.7435405E-2,2.3446935E-3,9.139014E-2,1.67907E-2,-1.44579075E-2,3.6798842E-2,2.353419E-2,6.83858E-2],"categories":[],"categories_nodes":[],"categories_segments":[],"categories_sizes":[],"default_left":[0,0,0,0,0,0,0,0,0,0,0,0,0,0,0,0,0,0,0,0,0,0,0],"id":27,"left_children":[1,3,5,7,9,11,-1,-1,13,15,17,19,21,-1,-1,-1,-1,-1,-1,-1,-1,-1,-1],"loss_changes":[8.111732E0,6.690535E0,9.044304E-1,5.2334785E-1,4.5697026E0,5.6062937E-1,0E0,0E0,4.0499687E-2,3.938126E0,3.9325523E-1,4.6615452E-1,2.1594429E-1,0E0,0E0,0E0,0E0,0E0,0E0,0E0,0E0,0E0,0E0],"parents":[2147483647,0,0,1,1,2,2,3,3,4,4,5,5,8,8,9,9,10,10,11,11,12,12],"right_children":[2,4,6,8,10,12,-1,-1,14,16,18,20,22,-1,-1,-1,-1,-1,-1,-1,-1,-1,-1],"split_conditions":[1.1117315E0,-7.401454E-1,5.111712E0,-1.0381777E0,1.8996992E0,-8.1334233E-1,-1.1335042E-2,-5.7720146E-3,-7.988086E-1,-9.8971486E-1,3.1685388E-1,1.3785819E0,-5.641557E-1,-7.477305E-2,-2.2782631E-2,-5.7435405E-2,2.3446935E-3,9.139014E-2,1.67907E-2,-1.44579075E-2,3.6798842E-2,2.353419E-2,6.83858E-2],"split_indices":[1,5,4,4,5,6,0,0,5,1,6,1,5,0,0,0,0,0,0,0,0,0,0],"split_type":[0,0,0,0,0,0,0,0,0,0,0,0,0,0,0,0,0,0,0,0,0,0,0],"sum_hessian":[9.349631E1,7.697479E1,1.652151E1,1.0586478E1,6.638831E1,1.5452031E1,1.0694773E0,1.0554388E0,9.53104E0,6.273254E1,3.6557782E0,2.8943517E0,1.255768E1,8.308255E0,1.2227845E0,7.064909E0,5.566763E1,2.527483E0,1.1282952E0,1.2677695E0,1.6265823E0,2.2249968E0,1.0332683E1],"tree_param":{"num_deleted":"0","num_feature":"8","num_nodes":"23","size_leaf_vector":"1"}},{"base_weights":[3.911364E-2,-5.13424E-1,1.5254036E-1,-6.56135E-1,1.6473268E-1,5.271724E-2,6.2928545E-1,-7.5348556E-1,1.7991861E-2,3.5962403E-2,-2.0666523E-2,-5.0605744E-1,1.4511807E-1,7.635962E-1,1.6711591E-1,-6.876891E-2,-8.117948E-3,-5.0130527E-2,9.614568E-4,-3.760851E-3,4.4849303E-2,7.1823455E-2,-2.6458749E-3,-4.453473E-2,6.686129E-2],"categories":[],"categories_nodes":[],"categories_segments":[],"categories_sizes":[],"default_left":[0,0,0,0,0,0,0,0,0,0,0,0,0,0,0,0,0,0,0,0,0,0,0,0,0],"id":28,"left_children":[1,3,5,7,9,11,13,15,-1,-1,-1,17,19,21,23,-1,-1,-1,-1,-1,-1,-1,-1,-1,-1],"loss_changes":[5.67101E0,1.6011968E0,3.5269966E0,1.2798505E0,5.3560567E-1,3.3235455E0,6.7069674E-1,7.3536396E-1,0E0,0E0,0E0,5.794215E-1,4.4004574E0,1.0650678E0,2.4863086E0,0E0,0E0,0E0,0E0,0E0,0E0,0E0,0E0,0E0,0E0],"parents":[2147483647,0,0,1,1,2,2,3,3,4,4,5,5,6,6,7,7,11,11,12,12,13,13,14,14],"right_children":[2,4,6,8,10,12,14,16,-1,-1,-1,18,20,22,24,-1,-1,-1,-1,-1,-1,-1,-1,-1,-1],"split_conditions":[-7.2286457E-1,8.039004E-1,1.2451568E0,1.866489E0,5.459296E-2,-7.401454E-1,1.2376354E0,7.850982E-1,1.7991861E-2,3.5962403E-2,-2.0666523E-2,5.446746E-1,6.585583E-1,2.2458456E0,1.7455012E0,-6.876891E-2,-8.117948E-3,-5.0130527E-2,9.614568E-4,-3.760851E-3,4.4849303E-2,7.1823455E-2,-2.6458749E-3,-4.453473E-2,6.686129E-2],"split_indices":[1,2,1,0,0,5,7,5,0,0,0,1,0,1,1,0,0,0,0,0,0,0,0,0,0],"split_type":[0,0,0,0,0,0,0,0,0,0,0,0,0,0,0,0,0,0,0,0,0,0,0,0,0],"sum_hessian":[8.823674E1,1.4427809E1,7.380894E1,1.1946305E1,2.4815032E0,6.1948456E1,1.1860479E1,1.0887998E1,1.0583081E0,1.4457197E0,1.0357835E0,8.155148E0,5.379331E1,8.684487E0,3.175992E0,9.09004E0,1.7979568E0,6.4455156E0,1.7096322E0,3.739056E1,1.6402748E1,7.323868E0,1.3606195E0,1.6055106E0,1.5704814E0],"tree_param":{"num_deleted":"0","num_feature":"8","num_nodes":"25","size_leaf_vector":"1"}},{"base_weights":[8.0650095E-3,-1.0956616E-1,5.5304176E-1,-7.9715043E-1,-1.5089648E-2,2.5182348E-1,7.4768025E-1,-5.913299E-3,-7.057736E-2,-7.030915E-2,7.4586713E-1,5.5637646E-1,-3.372365E-1,8.933472E-1,-1.267469E-2,-2.0566795E-2,1.9755783E-2,8.960769E-2,-1.8118015E-2,1.0239732E-2,7.353522E-2,-6.463553E-2,2.8221276E-2,7.841977E-2,1.2686689E-2],"categories":[],"categories_nodes":[],"categories_segments":[],"categories_sizes":[],"default_left":[0,0,0,0,0,0,0,0,0,0,0,0,0,0,0,0,0,0,0,0,0,0,0,0,0],"id":29,"left_children":[1,3,5,7,9,11,13,-1,-1,15,17,19,21,23,-1,-1,-1,-1,-1,-1,-1,-1,-1,-1,-1],"loss_changes":[5.923868E0,4.928837E0,7.733636E-1,4.988966E-1,2.9051728E0,1.6131897E0,1.3896527E0,0E0,0E0,3.8683653E0,1.9563944E0,7.551156E-1,1.3668194E0,3.7432528E-1,0E0,0E0,0E0,0E0,0E0,0E0,0E0,0E0,0E0,0E0,0E0],"parents":[2147483647,0,0,1,1,2,2,3,3,4,4,5,5,6,6,9,9,10,10,11,11,12,12,13,13],"right_children":[2,4,6,8,10,12,14,-1,-1,16,18,20,22,24,-1,-1,-1,-1,-1,-1,-1,-1,-1,-1,-1],"split_conditions":[1.1117315E0,-8.281402E-1,-4.103501E-1,-1.0254713E0,1.8996992E0,-6.315413E-1,2.2458456E0,-5.913299E-3,-7.057736E-2,1.5323298E-1,1.0167878E0,-8.1334233E-1,5.459296E-2,1.4890568E0,-1.267469E-2,-2.0566795E-2,1.9755783E-2,8.960769E-2,-1.8118015E-2,1.0239732E-2,7.353522E-2,-6.463553E-2,2.8221276E-2,7.841977E-2,1.2686689E-2],"split_indices":[1,5,6,4,5,6,1,0,0,6,6,6,0,5,0,0,0,0,0,0,0,0,0,0,0],"split_type":[0,0,0,0,0,0,0,0,0,0,0,0,0,0,0,0,0,0,0,0,0,0,0,0,0],"sum_hessian":[9.04618E1,7.5059456E1,1.5402347E1,8.169034E0,6.689042E1,6.9462624E0,8.456084E0,1.0564071E0,7.112627E0,6.321106E1,3.6793618E0,4.615475E0,2.330787E0,7.297092E0,1.1589919E0,3.9906746E1,2.3304312E1,2.547095E0,1.1322668E0,2.7368379E0,1.8786374E0,1.2839614E0,1.0468254E0,6.226581E0,1.0705111E0],"tree_param":{"num_deleted":"0","num_feature":"8","num_nodes":"25","size_leaf_vector":"1"}},{"base_weights":[8.9866726E-4,-4.8059118E-1,7.006256E-2,-7.661443E-2,7.325673E-2,3.2125138E-2,8.2223386E-2,-6.27146E-2,5.105847E-1,-3.8673577E-1,9.045511E-2,6.7134695E-3,5.4174915E-2,-7.893266E-2,4.413482E-3,1.4075633E-2,-2.7422186E-2],"categories":[],"categories_nodes":[],"categories_segments":[],"categories_sizes":[],"default_left":[0,0,0,0,0,0,0,0,0,0,0,0,0,0,0,0,0],"id":30,"left_children":[1,3,5,-1,7,9,-1,-1,11,13,15,-1,-1,-1,-1,-1,-1],"loss_changes":[3.06041E0,3.1202483E0,2.886231E0,0E0,2.7510066E0,1.9484141E0,0E0,0E0,2.813785E-1,2.6425843E0,2.6363766E0,0E0,0E0,0E0,0E0,0E0,0E0],"parents":[2147483647,0,0,1,1,2,2,4,4,5,5,8,8,9,9,10,10],"right_children":[2,4,6,-1,8,10,-1,-1,12,14,16,-1,-1,-1,-1,-1,-1],"split_conditions":[-8.7674445E-1,-4.7661373E-3,2.2663443E0,-7.661443E-2,-3.2550967E-1,-8.2674E-1,8.2223386E-2,-6.27146E-2,7.445254E-2,-3.8816607E-1,1.1300285E0,6.7134695E-3,5.4174915E-2,-7.893266E-2,4.413482E-3,1.4075633E-2,-2.7422186E-2],"split_indices":[7,3,5,0,6,2,0,0,6,5,2,0,0,0,0,0,0],"split_type":[0,0,0,0,0,0,0,0,0,0,0,0,0,0,0,0,0],"sum_hessian":[8.988837E1,1.0543108E1,7.934525E1,5.272335E0,5.2707734E0,7.731616E1,2.0290916E0,1.5128822E0,3.757891E0,8.762623E0,6.855354E1,1.4775634E0,2.2803276E0,3.1938965E0,5.5687265E0,5.7751286E1,1.0802256E1],"tree_param":{"num_deleted":"0","num_feature":"8","num_nodes":"17","size_leaf_vector":"1"}},{"base_weights":[-3.1081244E-2,-5.6183696E-1,7.475453E-2,-6.7122567E-1,1.6099272E-2,2.0457743E-4,5.824811E-1,-7.6557094E-1,2.9640782E-3,4.6608876E-2,-7.1368635E-1,7.7385134E-1,-2.0008082E-2,-7.1446694E-2,-2.7033852E-2,-8.124113E-3,2.8354373E-2,-3.9882394E-3,-8.371244E-2,-3.9566318E-3,7.454742E-2],"categories":[],"categories_nodes":[],"categories_segments":[],"categories_sizes":[],"default_left":[0,0,0,0,0,0,0,0,0,0,0,0,0,0,0,0,0,0,0,0,0],"id":31,"left_children":[1,3,5,7,-1,9,11,13,-1,15,17,19,-1,-1,-1,-1,-1,-1,-1,-1,-1],"loss_changes":[5.188392E0,1.4162989E0,2.9245446E0,9.408469E-1,0E0,2.2983787E0,1.7697096E0,3.5782528E-1,0E0,3.0068605E0,8.8312316E-1,1.1241312E0,0E0,0E0,0E0,0E0,0E0,0E0,0E0,0E0,0E0],"parents":[2147483647,0,0,1,1,2,2,3,3,5,5,6,6,7,7,9,9,10,10,11,11],"right_children":[2,4,6,8,-1,10,12,14,-1,16,18,20,-1,-1,-1,-1,-1,-1,-1,-1,-1],"split_conditions":[-7.2286457E-1,8.993346E-1,1.5120071E0,8.039004E-1,1.6099272E-2,2.5062633E0,1.8136821E0,3.3289635E-1,2.9640782E-3,5.6103384E-1,3.5657564E-1,-5.384437E-1,-2.0008082E-2,-7.1446694E-2,-2.7033852E-2,-8.124113E-3,2.8354373E-2,-3.9882394E-3,-8.371244E-2,-3.9566318E-3,7.454742E-2],"split_indices":[1,7,1,2,0,7,6,3,0,7,0,7,0,0,0,0,0,0,0,0,0],"split_type":[0,0,0,0,0,0,0,0,0,0,0,0,0,0,0,0,0,0,0,0,0],"sum_hessian":[9.061692E1,1.43490925E1,7.626782E1,1.2655301E1,1.6937917E0,6.7375435E1,8.892392E0,1.1096333E1,1.5589683E0,6.414086E1,3.2345695E0,7.2878175E0,1.6045747E0,7.7092767E0,3.387056E0,4.3752167E1,2.0388697E1,1.4638219E0,1.7707475E0,1.2839553E0,6.0038624E0],"tree_param":{"num_deleted":"0","num_feature":"8","num_nodes":"21","size_leaf_vector":"1"}},{"base_weights":[-1.5103033E-2,-6.425466E-1,6.49815E-2,-7.631362E-1,-1.17285475E-1,1.2587257E-2,7.493811E-1,-9.902058E-3,-8.520745E-1,1.0054199E-2,-2.3973908E-2,-3.7408084E-1,8.6606055E-2,-9.2817545E-3,8.019462E-2,-7.584405E-2,-2.5518112E-2,-7.287709E-3,-7.866447E-2,-1.605232E-3,2.8553488E-2],"categories":[],"categories_nodes":[],"categories_segments":[],"categories_sizes":[],"default_left":[0,0,0,0,0,0,0,0,0,0,0,0,0,0,0,0,0,0,0,0,0],"id":32,"left_children":[1,3,5,7,9,11,13,-1,15,-1,-1,17,19,-1,-1,-1,-1,-1,-1,-1,-1],"loss_changes":[4.3951E0,5.3745365E-1,2.7781498E0,3.419609E-1,1.7192027E-1,2.1282122E0,1.3231599E0,0E0,4.232073E-2,0E0,0E0,1.9712135E0,1.8028032E0,0E0,0E0,0E0,0E0,0E0,0E0,0E0,0E0],"parents":[2147483647,0,0,1,1,2,2,3,3,4,4,5,5,6,6,8,8,11,11,12,12],"right_children":[2,4,6,8,10,12,14,-1,16,-1,-1,18,20,-1,-1,-1,-1,-1,-1,-1,-1],"split_conditions":[-8.721376E-1,9.839098E-1,1.8996992E0,-1.1528682E0,1.9988121E0,-3.5203305E-1,-8.513551E-1,-9.902058E-3,-1.1556773E-1,1.0054199E-2,-2.3973908E-2,1.0082214E0,9.60541E-1,-9.2817545E-3,8.019462E-2,-7.584405E-2,-2.5518112E-2,-7.287709E-3,-7.866447E-2,-1.605232E-3,2.8553488E-2],"split_indices":[5,7,5,2,7,4,0,0,7,0,0,3,0,0,0,0,0,0,0,0,0],"split_type":[0,0,0,0,0,0,0,0,0,0,0,0,0,0,0,0,0,0,0,0,0],"sum_hessian":[8.563632E1,8.898138E0,7.673819E1,6.868415E0,2.0297234E0,7.222722E1,4.5109653E0,1.1308261E0,5.737589E0,1.0036616E0,1.0260618E0,1.0953448E1,6.1273773E1,1.1431284E0,3.3678372E0,4.2025967E0,1.534992E0,8.264242E0,2.6892052E0,4.459955E1,1.6674223E1],"tree_param":{"num_deleted":"0","num_feature":"8","num_nodes":"21","size_leaf_vector":"1"}},{"base_weights":[2.9533349E-2,-3.177949E-1,1.5439321E-1,-4.4197714E-1,5.5722773E-1,-6.362103E-2,2.044744E-1,-5.424204E-1,1.9464263E-1,1.0232325E-2,5.8068473E-2,-5.6142464E-2,2.4674912E-1,-1.6285965E-2,-5.572718E-2,-2.7393827E-2,5.116696E-2,8.356495E-3,3.8617365E-2],"categories":[],"categories_nodes":[],"categories_segments":[],"categories_sizes":[],"default_left":[0,0,0,0,0,0,0,0,0,0,0,0,0,0,0,0,0,0,0],"id":33,"left_children":[1,3,5,7,9,-1,11,13,15,-1,-1,-1,17,-1,-1,-1,-1,-1,-1],"loss_changes":[3.8387225E0,2.7926776E0,3.2516723E0,1.4534764E0,1.5002978E-1,0E0,2.5673668E0,8.2310057E-1,1.0813127E0,0E0,0E0,0E0,1.9791944E0,0E0,0E0,0E0,0E0,0E0,0E0],"parents":[2147483647,0,0,1,1,2,2,3,3,4,4,6,6,7,7,8,8,12,12],"right_children":[2,4,6,8,10,-1,12,14,16,-1,-1,-1,18,-1,-1,-1,-1,-1,-1],"split_conditions":[-4.5601422E-1,2.197542E-1,-7.459309E-1,1.068485E0,-1.7448385E-1,-6.362103E-2,-1.4679703E0,-4.790969E-1,2.3317628E-1,1.0232325E-2,5.8068473E-2,-5.6142464E-2,5.6103384E-1,-1.6285965E-2,-5.572718E-2,-2.7393827E-2,5.116696E-2,8.356495E-3,3.8617365E-2],"split_indices":[1,4,4,7,2,0,3,4,2,0,0,0,7,0,0,0,0,0,0],"split_type":[0,0,0,0,0,0,0,0,0,0,0,0,0,0,0,0,0,0,0],"sum_hessian":[8.638501E1,2.2434036E1,6.395097E1,2.0079302E1,2.3547359E0,2.4582043E0,6.1492764E1,1.7470798E1,2.6085036E0,1.1599715E0,1.1947644E0,2.0453575E0,5.9447407E1,6.1888676E0,1.128193E1,1.2863014E0,1.3222023E0,3.7984653E1,2.1462755E1],"tree_param":{"num_deleted":"0","num_feature":"8","num_nodes":"19","size_leaf_vector":"1"}},{"base_weights":[-1.9450381E-2,-5.200582E-1,6.2073924E-2,-7.53161E-2,1.1378905E-1,2.9293802E-1,-9.4882056E-2,5.627562E-2,-4.4660473E-1,-3.6077842E-1,4.7060546E-1,-2.0816949E-1,4.2394638E-1,5.7646227E-3,-5.708644E-2,-4.2001918E-2,1.9921588E-2,5.0804913E-2,-1.9284679E-2,-4.472016E-2,-8.964884E-3,4.3095898E-2,-1.2303431E-2],"categories":[],"categories_nodes":[],"categories_segments":[],"categories_sizes":[],"default_left":[0,0,0,0,0,0,0,0,0,0,0,0,0,0,0,0,0,0,0,0,0,0,0],"id":34,"left_children":[1,3,5,-1,7,9,11,-1,13,15,17,19,21,-1,-1,-1,-1,-1,-1,-1,-1,-1,-1],"loss_changes":[3.5329647E0,3.3441336E0,2.733039E0,0E0,2.2081585E0,3.7074723E0,2.7448342E0,0E0,5.430523E-1,8.39376E-1,3.0069494E0,1.2108241E0,6.41708E-1,0E0,0E0,0E0,0E0,0E0,0E0,0E0,0E0,0E0,0E0],"parents":[2147483647,0,0,1,1,2,2,4,4,5,5,6,6,8,8,9,9,10,10,11,11,12,12],"right_children":[2,4,6,-1,8,10,12,-1,14,16,18,20,22,-1,-1,-1,-1,-1,-1,-1,-1,-1,-1],"split_conditions":[-8.2674E-1,1.11042775E-1,1.5164426E-1,-7.53161E-2,-1.3974642E0,-1.9955644E-1,1.1450878E0,5.627562E-2,2.915846E-2,8.198366E-1,5.628266E-1,-7.6486206E-1,1.8136821E0,5.7646227E-3,-5.708644E-2,-4.2001918E-2,1.9921588E-2,5.0804913E-2,-1.9284679E-2,-4.472016E-2,-8.964884E-3,4.3095898E-2,-1.2303431E-2],"split_indices":[2,1,2,0,2,4,1,0,4,6,4,6,6,0,0,0,0,0,0,0,0,0,0],"split_type":[0,0,0,0,0,0,0,0,0,0,0,0,0,0,0,0,0,0,0,0,0,0,0],"sum_hessian":[8.4776436E1,1.1119135E1,7.3657295E1,6.387388E0,4.731747E0,2.9459463E1,4.4197834E1,2.181288E0,2.5504591E0,6.0752635E0,2.33842E1,3.6768185E1,7.4296513E0,1.1147991E0,1.4356599E0,4.895665E0,1.1795983E0,1.90822E1,4.302001E0,6.8707933E0,2.989739E1,6.254865E0,1.1747857E0],"tree_param":{"num_deleted":"0","num_feature":"8","num_nodes":"23","size_leaf_vector":"1"}},{"base_weights":[-2.2060845E-2,-9.4103046E-2,5.6468177E-1,-1.6288424E-1,5.491627E-1,-1.014625E-3,6.514242E-1,-1.01005286E-1,-8.0098146E-1,-3.056005E-2,7.9431176E-1,6.9303656E-1,1.47617515E-2,-1.9577606E-2,3.8759984E-2,7.2833803E-3,-9.6161075E-2,2.6873592E-2,8.538891E-2,6.567173E-2,2.572047E-2],"categories":[],"categories_nodes":[],"categories_segments":[],"categories_sizes":[],"default_left":[0,0,0,0,0,0,0,0,0,0,0,0,0,0,0,0,0,0,0,0,0],"id":35,"left_children":[1,3,5,7,9,-1,11,13,15,-1,17,19,-1,-1,-1,-1,-1,-1,-1,-1,-1],"loss_changes":[3.808057E0,3.6278746E0,5.0192523E-1,2.8022838E0,2.119112E0,0E0,3.898859E-2,5.8160267E0,2.3669963E0,0E0,4.701705E-1,9.344983E-2,0E0,0E0,0E0,0E0,0E0,0E0,0E0,0E0,0E0],"parents":[2147483647,0,0,1,1,2,2,3,3,4,4,6,6,7,7,8,8,10,10,11,11],"right_children":[2,4,6,8,10,-1,12,14,16,-1,18,20,-1,-1,-1,-1,-1,-1,-1,-1,-1],"split_conditions":[1.5120071E0,1.4450593E0,-5.641557E-1,1.9988121E0,-3.2662028E-1,-1.014625E-3,1.7450866E0,8.147594E-1,3.5657564E-1,-3.056005E-2,7.768648E-2,5.459296E-2,1.47617515E-2,-1.9577606E-2,3.8759984E-2,7.2833803E-3,-9.6161075E-2,2.6873592E-2,8.538891E-2,6.567173E-2,2.572047E-2],"split_indices":[1,5,5,7,4,0,7,7,0,0,1,0,0,0,0,0,0,0,0,0,0],"split_type":[0,0,0,0,0,0,0,0,0,0,0,0,0,0,0,0,0,0,0,0,0],"sum_hessian":[8.783129E1,7.89742E1,8.857096E0,7.202022E1,6.9539766E0,1.268389E0,7.5887065E0,6.670942E1,5.3107986E0,1.3329023E0,5.621074E0,6.523018E0,1.0656884E0,5.4029644E1,1.2679776E1,1.8868406E0,3.4239583E0,2.9309273E0,2.690147E0,3.9530876E0,2.5699303E0],"tree_param":{"num_deleted":"0","num_feature":"8","num_nodes":"21","size_leaf_vector":"1"}},{"base_weights":[-1.185349E-2,-5.333072E-1,8.192328E-2,-6.717559E-1,4.0055044E-2,1.3548096E-2,5.8095944E-1,-8.560143E-1,-2.7234197E-1,-3.7510823E-2,7.32582E-1,-9.690555E-4,6.8262255E-1,-6.750124E-3,-7.6945364E-2,-5.1039528E-2,2.556801E-2,-2.8798759E-2,7.3250923E-3,7.82094E-2,2.7120402E-3,8.048962E-3,6.7301035E-2],"categories":[],"categories_nodes":[],"categories_segments":[],"categories_sizes":[],"default_left":[0,0,0,0,0,0,0,0,0,0,0,0,0,0,0,0,0,0,0,0,0,0,0],"id":36,"left_children":[1,3,5,7,-1,9,11,13,15,17,19,-1,21,-1,-1,-1,-1,-1,-1,-1,-1,-1,-1],"loss_changes":[4.2134295E0,2.2160444E0,2.4877822E0,6.5053415E-1,0E0,2.4266822E0,5.3823376E-1,5.5156326E-1,1.3417716E0,2.6122832E0,7.169905E-1,0E0,6.0977054E-1,0E0,0E0,0E0,0E0,0E0,0E0,0E0,0E0,0E0,0E0],"parents":[2147483647,0,0,1,1,2,2,3,3,5,5,6,6,7,7,8,8,9,9,10,10,12,12],"right_children":[2,4,6,8,-1,10,12,14,16,18,20,-1,22,-1,-1,-1,-1,-1,-1,-1,-1,-1,-1],"split_conditions":[-7.2286457E-1,1.866489E0,1.5120071E0,2.4246347E-1,4.0055044E-2,1.8996992E0,-5.641557E-1,-8.4970254E-1,4.7182392E-2,-6.679015E-1,8.89527E-1,-9.690555E-4,-6.224513E-1,-6.750124E-3,-7.6945364E-2,-5.1039528E-2,2.556801E-2,-2.8798759E-2,7.3250923E-3,7.82094E-2,2.7120402E-3,8.048962E-3,6.7301035E-2],"split_indices":[1,0,1,5,0,5,5,6,6,6,6,0,6,0,0,0,0,0,0,0,0,0,0],"split_type":[0,0,0,0,0,0,0,0,0,0,0,0,0,0,0,0,0,0,0,0,0,0,0],"sum_hessian":[8.427031E1,1.2130523E1,7.2139786E1,1.1007044E1,1.1234788E0,6.4350044E1,7.7897406E0,6.749962E0,4.257082E0,6.096848E1,3.3815675E0,1.2687981E0,6.5209427E0,1.0306613E0,5.7193007E0,2.5834472E0,1.6736349E0,1.6916391E1,4.405209E1,2.207974E0,1.1735936E0,1.7467568E0,4.7741857E0],"tree_param":{"num_deleted":"0","num_feature":"8","num_nodes":"23","size_leaf_vector":"1"}},{"base_weights":[-2.9087358E-3,-1.8008313E-1,2.117053E-1,-7.4784553E-1,-9.085273E-2,-5.987081E-2,2.57547E-1,-4.2503355E-3,-7.009105E-2,-6.4877584E-3,-6.296098E-1,1.08553335E-1,5.3439575E-1,-1.11876475E-2,5.7538364E-2,-6.541084E-2,-1.9733217E-2,3.361583E-2,-1.0494688E-2,4.9824476E-2,-1.7962093E-2],"categories":[],"categories_nodes":[],"categories_segments":[],"categories_sizes":[],"default_left":[0,0,0,0,0,0,0,0,0,0,0,0,0,0,0,0,0,0,0,0,0],"id":37,"left_children":[1,3,5,7,9,-1,11,-1,-1,13,15,17,19,-1,-1,-1,-1,-1,-1,-1,-1],"loss_changes":[3.2460513E0,2.3007007E0,1.8921165E0,5.0708103E-1,1.8841133E0,0E0,1.4927685E0,0E0,0E0,3.6745172E0,2.0254874E-1,1.9749943E0,1.0053201E0,0E0,0E0,0E0,0E0,0E0,0E0,0E0,0E0],"parents":[2147483647,0,0,1,1,2,2,3,3,4,4,6,6,9,9,10,10,11,11,12,12],"right_children":[2,4,6,8,10,-1,12,-1,-1,14,16,18,20,-1,-1,-1,-1,-1,-1,-1,-1],"split_conditions":[2.1111165E-1,-7.988086E-1,-1.3561091E0,-9.873522E-1,1.2930926E0,-5.987081E-2,1.2118005E0,-4.2503355E-3,-7.009105E-2,8.039004E-1,-2.2252016E-1,1.5164426E-1,1.7822847E0,-1.11876475E-2,5.7538364E-2,-6.541084E-2,-1.9733217E-2,3.361583E-2,-1.0494688E-2,4.9824476E-2,-1.7962093E-2],"split_indices":[1,5,5,4,2,0,1,0,0,2,1,2,2,0,0,0,0,0,0,0,0],"split_type":[0,0,0,0,0,0,0,0,0,0,0,0,0,0,0,0,0,0,0,0,0],"sum_hessian":[8.336559E1,4.5754177E1,3.7611416E1,5.2116985E0,4.0542477E1,1.0156027E0,3.6595814E1,1.0328491E0,4.1788497E0,3.592842E1,4.614056E0,2.469671E1,1.1899101E1,3.1033083E1,4.89534E0,2.3332865E0,2.2807698E0,1.0410673E1,1.4286037E1,1.0818195E1,1.0809059E0],"tree_param":{"num_deleted":"0","num_feature":"8","num_nodes":"21","size_leaf_vector":"1"}},{"base_weights":[-2.2724133E-2,-6.197842E-1,4.7373936E-2,-7.5507425E-2,6.382036E-2,1.18242614E-1,-3.5585153E-1,-2.9893743E-2,4.7237523E-2,-3.7275717E-1,1.9942643E-1,-6.167872E-1,4.1548982E-1,-5.462182E-2,3.1538945E-2,2.6988009E-2,-1.3785975E-2,-6.306117E-2,2.047311E-2,-2.059988E-2,6.567359E-2],"categories":[],"categories_nodes":[],"categories_segments":[],"categories_sizes":[],"default_left":[0,0,0,0,0,0,0,0,0,0,0,0,0,0,0,0,0,0,0,0,0],"id":38,"left_children":[1,3,5,-1,7,9,11,-1,-1,13,15,17,19,-1,-1,-1,-1,-1,-1,-1,-1],"loss_changes":[3.5035546E0,2.0080936E0,2.191484E0,0E0,1.0879742E0,2.6543179E0,2.5694757E0,0E0,0E0,2.5356598E0,2.9392922E0,1.547122E0,1.1670887E0,0E0,0E0,0E0,0E0,0E0,0E0,0E0,0E0],"parents":[2147483647,0,0,1,1,2,2,4,4,5,5,6,6,9,9,10,10,11,11,12,12],"right_children":[2,4,6,-1,8,10,12,-1,-1,14,16,18,20,-1,-1,-1,-1,-1,-1,-1,-1],"split_conditions":[-9.563586E-1,2.2034219E-1,7.407159E-1,-7.5507425E-2,-4.3718107E-2,-8.2674E-1,9.60541E-1,-2.9893743E-2,4.7237523E-2,6.7055887E-1,8.039004E-1,1.7455012E0,-1.14197945E-2,-5.462182E-2,3.1538945E-2,2.6988009E-2,-1.3785975E-2,-6.306117E-2,2.047311E-2,-2.059988E-2,6.567359E-2],"split_indices":[1,3,4,0,6,2,0,0,0,3,2,1,2,0,0,0,0,0,0,0,0],"split_type":[0,0,0,0,0,0,0,0,0,0,0,0,0,0,0,0,0,0,0,0,0],"sum_hessian":[8.2009895E1,7.7928295E0,7.4217064E1,5.0284414E0,2.764388E0,6.372404E1,1.0493027E1,1.6686754E0,1.0957125E0,8.531856E0,5.5192184E1,7.990355E0,2.5026722E0,6.154173E0,2.377683E0,4.032406E1,1.4868126E1,6.7590237E0,1.2313312E0,1.0780511E0,1.424621E0],"tree_param":{"num_deleted":"0","num_feature":"8","num_nodes":"21","size_leaf_vector":"1"}},{"base_weights":[-1.4676059E-2,-8.928475E-2,7.1397007E-1,-1.3499705E-1,6.429179E-1,1.8039843E-2,8.296281E-1,-2.1642418E-1,2.0646174E-1,6.928631E-2,-4.0305685E-3,7.590408E-2,1.970194E-2,-8.2729915E-3,-4.6750993E-2,3.5598557E-2,-3.0497454E-2],"categories":[],"categories_nodes":[],"categories_segments":[],"categories_sizes":[],"default_left":[0,0,0,0,0,0,0,0,0,0,0,0,0,0,0,0,0],"id":39,"left_children":[1,3,5,7,9,-1,11,13,15,-1,-1,-1,-1,-1,-1,-1,-1],"loss_changes":[4.5484653E0,2.6212494E0,2.5209284E-1,2.0493126E0,7.589165E-1,0E0,1.7734289E-1,2.3807306E0,2.1873546E0,0E0,0E0,0E0,0E0,0E0,0E0,0E0,0E0],"parents":[2147483647,0,0,1,1,2,2,3,3,4,4,6,6,7,7,8,8],"right_children":[2,4,6,8,10,-1,12,14,16,-1,-1,-1,-1,-1,-1,-1,-1],"split_conditions":[1.5120071E0,1.8996992E0,-5.384437E-1,1.2625237E0,1.2930926E0,1.8039843E-2,1.2625237E0,8.039004E-1,3.744557E-1,6.928631E-2,-4.0305685E-3,7.590408E-2,1.970194E-2,-8.2729915E-3,-4.6750993E-2,3.5598557E-2,-3.0497454E-2],"split_indices":[1,5,7,0,2,0,0,2,5,0,0,0,0,0,0,0,0],"split_type":[0,0,0,0,0,0,0,0,0,0,0,0,0,0,0,0,0],"sum_hessian":[8.1495285E1,7.4721725E1,6.77356E0,7.109858E1,3.6231437E0,1.8614744E0,4.912086E0,5.7704147E1,1.3394435E1,2.5523686E0,1.0707749E0,3.5586355E0,1.3534503E0,4.5125793E1,1.2578351E1,9.700238E0,3.6941967E0],"tree_param":{"num_deleted":"0","num_feature":"8","num_nodes":"17","size_leaf_vector":"1"}},{"base_weights":[-4.6219192E-2,-5.9735715E-1,1.770425E-2,-8.4262526E-1,2.7097672E-2,-3.4140533E-1,8.6701706E-2,-7.4522816E-2,-1.36082005E-2,-8.287339E-1,-5.809149E-2,1.6718401E-1,-2.99513E-1,-1.7187087E-2,-8.1045054E-2,1.29736075E-2,-5.5897467E-2,2.0777293E-2,-3.746488E-2,-4.7656164E-2,4.917878E-2],"categories":[],"categories_nodes":[],"categories_segments":[],"categories_sizes":[],"default_left":[0,0,0,0,0,0,0,0,0,0,0,0,0,0,0,0,0,0,0,0,0],"id":40,"left_children":[1,3,5,7,-1,9,11,-1,-1,13,15,17,19,-1,-1,-1,-1,-1,-1,-1,-1],"loss_changes":[2.946073E0,2.280205E0,1.9036282E0,2.703457E-1,0E0,1.6628281E0,2.046921E0,0E0,0E0,2.8935766E-1,1.3708258E0,3.2855477E0,3.463152E0,0E0,0E0,0E0,0E0,0E0,0E0,0E0,0E0],"parents":[2147483647,0,0,1,1,2,2,3,3,5,5,6,6,9,9,10,10,11,11,12,12],"right_children":[2,4,6,8,-1,10,12,-1,-1,14,16,18,20,-1,-1,-1,-1,-1,-1,-1,-1],"split_conditions":[-8.89646E-1,9.380073E-1,-1.9955644E-1,6.7055887E-1,2.7097672E-2,-5.8214396E-1,7.407159E-1,-7.4522816E-2,-1.36082005E-2,-8.7674445E-1,1.2333297E0,1.8296617E0,8.147594E-1,-1.7187087E-2,-8.1045054E-2,1.29736075E-2,-5.5897467E-2,2.0777293E-2,-3.746488E-2,-4.7656164E-2,4.917878E-2],"split_indices":[1,6,4,3,0,2,4,0,0,7,3,7,7,0,0,0,0,0,0,0,0],"split_type":[0,0,0,0,0,0,0,0,0,0,0,0,0,0,0,0,0,0,0,0,0],"sum_hessian":[8.2322296E1,7.6884856E0,7.463381E1,6.1713285E0,1.517157E0,1.1392326E1,6.3241486E1,5.110559E0,1.06077E0,3.4804513E0,7.9118752E0,5.2804756E1,1.04367285E1,1.3037897E0,2.1766617E0,6.4433627E0,1.4685125E0,4.660944E1,6.195316E0,8.146069E0,2.2906594E0],"tree_param":{"num_deleted":"0","num_feature":"8","num_nodes":"21","size_leaf_vector":"1"}},{"base_weights":[-1.6110174E-2,-6.190608E-1,5.9845943E-2,-6.943458E-2,-2.56217E-1,-9.44165E-2,2.671014E-1,5.1571816E-2,-4.552137E-2,-1.5877569E-1,6.889934E-2,1.22254565E-1,6.312419E-2,-1.6066037E-2,1.9931538E-2,-5.9434686E-2,-2.7971854E-3,7.361491E-2,-1.9586724E-3],"categories":[],"categories_nodes":[],"categories_segments":[],"categories_sizes":[],"default_left":[0,0,0,0,0,0,0,0,0,0,0,0,0,0,0,0,0,0,0],"id":41,"left_children":[1,3,5,-1,7,9,11,13,-1,15,-1,17,-1,-1,-1,-1,-1,-1,-1],"loss_changes":[3.790722E0,6.1363673E-1,2.3816583E0,0E0,5.285783E-1,2.7810261E0,2.3009923E0,2.2609116E-1,0E0,2.9483461E0,0E0,3.0674872E0,0E0,0E0,0E0,0E0,0E0,0E0,0E0],"parents":[2147483647,0,0,1,1,2,2,4,4,5,5,6,6,7,7,9,9,11,11],"right_children":[2,4,6,-1,8,10,12,14,-1,16,-1,18,-1,-1,-1,-1,-1,-1,-1],"split_conditions":[-8.5747176E-1,5.459296E-2,9.566266E-2,-6.943458E-2,1.5164426E-1,1.8996992E0,1.2625237E0,-3.375479E-1,-4.552137E-2,-1.6143729E-1,6.889934E-2,2.0474325E-1,6.312419E-2,-1.6066037E-2,1.9931538E-2,-5.9434686E-2,-2.7971854E-3,7.361491E-2,-1.9586724E-3],"split_indices":[5,0,6,0,2,5,0,2,0,4,0,6,0,0,0,0,0,0,0],"split_type":[0,0,0,0,0,0,0,0,0,0,0,0,0,0,0,0,0,0,0],"sum_hessian":[8.096189E1,8.258051E0,7.270384E1,4.072636E0,4.185415E0,4.1992683E1,3.0711157E1,2.5305424E0,1.6548724E0,4.012435E1,1.8683327E0,2.5005966E1,5.7051907E0,1.1038795E0,1.4266629E0,6.1425138E0,3.398184E1,3.0654902E0,2.1940475E1],"tree_param":{"num_deleted":"0","num_feature":"8","num_nodes":"19","size_leaf_vector":"1"}},{"base_weights":[-6.1833616E-3,-4.159965E-1,4.867757E-2,-7.599877E-1,1.3993655E-1,-2.8151818E-2,3.7634075E-1,-4.323032E-3,-7.0932664E-2,-3.5500385E-2,5.280557E-2,-8.5898705E-2,4.6509498E-1,-1.954502E-1,5.620337E-1,-1.0984504E-2,4.449388E-2,5.2270956E-2,-1.7254202E-2,-5.5280823E-2,4.360637E-2,9.5726825E-2,1.8273827E-2],"categories":[],"categories_nodes":[],"categories_segments":[],"categories_sizes":[],"default_left":[0,0,0,0,0,0,0,0,0,0,0,0,0,0,0,0,0,0,0,0,0,0,0],"id":42,"left_children":[1,3,5,7,9,11,13,-1,-1,-1,-1,15,17,19,21,-1,-1,-1,-1,-1,-1,-1,-1],"loss_changes":[1.8879554E0,2.0019999E0,1.8775179E0,5.135801E-1,1.6996405E0,1.7775757E0,1.6128585E0,0E0,0E0,0E0,0E0,1.9067974E0,9.80461E-1,1.9224164E0,2.0433326E0,0E0,0E0,0E0,0E0,0E0,0E0,0E0,0E0],"parents":[2147483647,0,0,1,1,2,2,3,3,4,4,5,5,6,6,11,11,12,12,13,13,14,14],"right_children":[2,4,6,8,10,12,14,-1,-1,-1,-1,16,18,20,22,-1,-1,-1,-1,-1,-1,-1,-1],"split_conditions":[-8.281402E-1,5.446746E-1,1.2625237E0,-9.7464585E-1,-2.4738972E-1,1.4786508E0,-4.893705E-1,-4.323032E-3,-7.0932664E-2,-3.5500385E-2,5.280557E-2,1.8996992E0,7.301842E-1,1.0778803E-1,1.5645063E0,-1.0984504E-2,4.449388E-2,5.2270956E-2,-1.7254202E-2,-5.5280823E-2,4.360637E-2,9.5726825E-2,1.8273827E-2],"split_indices":[5,1,0,4,0,1,1,0,0,0,0,5,7,3,0,0,0,0,0,0,0,0,0],"split_type":[0,0,0,0,0,0,0,0,0,0,0,0,0,0,0,0,0,0,0,0,0,0,0],"sum_hessian":[8.207291E1,8.912615E0,7.316029E1,5.279069E0,3.6335454E0,6.0004677E1,1.3155617E1,1.0201666E0,4.2589025E0,1.7813572E0,1.8521883E0,5.4455185E1,5.5494924E0,3.2121453E0,9.943472E0,5.11463E1,3.3088849E0,4.378648E0,1.1708444E0,1.9644276E0,1.2477179E0,2.5349839E0,7.408488E0],"tree_param":{"num_deleted":"0","num_feature":"8","num_nodes":"23","size_leaf_vector":"1"}},{"base_weights":[-1.4349361E-2,-6.85311E-2,5.068353E-1,-3.630956E-2,-6.9698E-2,-2.957199E-2,8.0447173E-1,-1.1374412E-1,5.2737063E-1,1.7002922E-2,9.784673E-1,-5.5183653E-2,-4.172281E-3,6.030725E-2,-3.9040737E-2,8.7808385E-2,2.2506202E-2],"categories":[],"categories_nodes":[],"categories_segments":[],"categories_sizes":[],"default_left":[0,0,0,0,0,0,0,0,0,0,0,0,0,0,0,0,0],"id":43,"left_children":[1,3,5,7,-1,-1,9,11,13,-1,15,-1,-1,-1,-1,-1,-1],"loss_changes":[2.3610494E0,1.9211948E0,2.352225E0,3.273953E0,0E0,0E0,4.300766E-1,2.290134E0,2.453767E0,0E0,6.580305E-2,0E0,0E0,0E0,0E0,0E0,0E0],"parents":[2147483647,0,0,1,1,2,2,3,3,6,6,7,7,8,8,10,10],"right_children":[2,4,6,8,-1,-1,10,12,14,-1,16,-1,-1,-1,-1,-1,-1],"split_conditions":[1.5330542E0,2.7954075E0,-2.7579474E-1,1.1440485E0,-6.9698E-2,-2.957199E-2,6.408364E-1,-9.563586E-1,9.9041945E-1,1.7002922E-2,2.515663E0,-5.5183653E-2,-4.172281E-3,6.030725E-2,-3.9040737E-2,8.7808385E-2,2.2506202E-2],"split_indices":[5,6,4,6,0,0,2,1,5,0,5,0,0,0,0,0,0],"split_type":[0,0,0,0,0,0,0,0,0,0,0,0,0,0,0,0,0],"sum_hessian":[8.1380424E1,7.4503624E1,6.8768005E0,7.263323E1,1.8703911E0,1.6819152E0,5.1948853E0,6.456231E1,8.07092E0,1.6847727E0,3.5101125E0,5.2509494E0,5.9311363E1,6.8096714E0,1.2612488E0,2.5072045E0,1.002908E0],"tree_param":{"num_deleted":"0","num_feature":"8","num_nodes":"17","size_leaf_vector":"1"}},{"base_weights":[-1.4459551E-2,-1.4455639E-1,1.8438885E-1,-2.1198095E-1,7.7471875E-2,1.02878176E-1,7.450556E-2,-3.7840834E-1,8.183594E-2,1.479864E-1,-5.831831E-2,-4.8057083E-3,-4.898552E-2,-7.108175E-2,1.7756758E-2,3.2996403E-3,9.540716E-2],"categories":[],"categories_nodes":[],"categories_segments":[],"categories_sizes":[],"default_left":[0,0,0,0,0,0,0,0,0,0,0,0,0,0,0,0,0],"id":44,"left_children":[1,3,5,7,-1,-1,9,11,13,15,-1,-1,-1,-1,-1,-1,-1],"loss_changes":[2.1051838E0,3.8920434E0,3.8038435E0,2.3362865E0,0E0,0E0,1.9001005E0,2.217525E0,2.6269844E0,3.1446085E0,0E0,0E0,0E0,0E0,0E0,0E0,0E0],"parents":[2147483647,0,0,1,1,2,2,3,3,6,6,7,7,8,8,9,9],"right_children":[2,4,6,8,-1,-1,10,12,14,16,-1,-1,-1,-1,-1,-1,-1],"split_conditions":[1.5323298E-1,1.8996992E0,2.0474325E-1,5.6103384E-1,7.7471875E-2,1.02878176E-1,2.7954075E0,-5.08526E-2,-3.2662028E-1,2.156074E0,-5.831831E-2,-4.8057083E-3,-4.898552E-2,-7.108175E-2,1.7756758E-2,3.2996403E-3,9.540716E-2],"split_indices":[6,5,6,7,0,0,6,5,4,6,0,0,0,0,0,0,0],"split_type":[0,0,0,0,0,0,0,0,0,0,0,0,0,0,0,0,0],"sum_hessian":[7.9346565E1,4.813029E1,3.1216278E1,4.6144325E1,1.9859631E0,1.8605907E0,2.9355688E1,2.9274435E1,1.686989E1,2.764344E1,1.7122487E0,1.2931852E1,1.6342583E1,1.454748E0,1.5415143E1,2.6023735E1,1.6197044E0],"tree_param":{"num_deleted":"0","num_feature":"8","num_nodes":"17","size_leaf_vector":"1"}},{"base_weights":[-1.2722724E-2,-3.2447246E-1,7.1712084E-2,-7.9830605E-1,1.9842846E-2,-3.8920587E-1,1.7231707E-1,-3.9479923E-3,-9.1144073E-1,-5.1532817E-1,2.6504472E-1,-2.3995072E-2,-6.9379365E-1,5.6835353E-1,9.4888695E-2,-8.0032706E-2,-1.9122781E-2,-5.8985658E-2,-6.8469485E-3,4.0582642E-2,-4.1803602E-2,-3.54848E-2,7.345943E-2,-8.014986E-2,2.075242E-2,-2.6994716E-2,5.8737114E-2,-4.9870857E-3,3.2233194E-2],"categories":[],"categories_nodes":[],"categories_segments":[],"categories_sizes":[],"default_left":[0,0,0,0,0,0,0,0,0,0,0,0,0,0,0,0,0,0,0,0,0,0,0,0,0,0,0,0,0],"id":45,"left_children":[1,3,5,7,9,11,13,-1,15,17,19,21,23,25,27,-1,-1,-1,-1,-1,-1,-1,-1,-1,-1,-1,-1,-1,-1],"loss_changes":[2.1840074E0,2.899548E0,3.1002479E0,5.873723E-1,1.6079454E0,1.3211459E0,1.6137668E0,0E0,1.453042E-1,3.0539727E-1,1.8580849E0,2.9788144E0,2.1750276E0,1.5538154E0,2.286407E0,0E0,0E0,0E0,0E0,0E0,0E0,0E0,0E0,0E0,0E0,0E0,0E0,0E0,0E0],"parents":[2147483647,0,0,1,1,2,2,3,3,4,4,5,5,6,6,8,8,9,9,10,10,11,11,12,12,13,13,14,14],"right_children":[2,4,6,8,10,12,14,-1,16,18,20,22,24,26,28,-1,-1,-1,-1,-1,-1,-1,-1,-1,-1,-1,-1,-1,-1],"split_conditions":[-7.075941E-1,-4.7661373E-3,-7.739521E-1,-1.0187956E0,-6.8551884E-3,-8.018421E-2,-4.549828E-1,-3.9479923E-3,4.037873E-1,-2.5581926E-1,6.622758E-1,-3.5883448E-1,-8.315224E-1,-1.0334615E0,9.60541E-1,-8.0032706E-2,-1.9122781E-2,-5.8985658E-2,-6.8469485E-3,4.0582642E-2,-4.1803602E-2,-3.54848E-2,7.345943E-2,-8.014986E-2,2.075242E-2,-2.6994716E-2,5.8737114E-2,-4.9870857E-3,3.2233194E-2],"split_indices":[7,3,6,5,5,5,3,0,5,6,6,5,6,5,0,0,0,0,0,0,0,0,0,0,0,0,0,0,0],"split_type":[0,0,0,0,0,0,0,0,0,0,0,0,0,0,0,0,0,0,0,0,0,0,0,0,0,0,0,0,0],"sum_hessian":[8.108705E1,1.667539E1,6.441166E1,6.462884E0,1.0212507E1,1.1026324E1,5.3385338E1,1.0366204E0,5.426264E0,2.8627334E0,7.349774E0,5.5047393E0,5.5215845E0,7.693528E0,4.569181E1,4.3613896E0,1.0648739E0,1.4156935E0,1.4470397E0,5.893132E0,1.4566413E0,4.1749454E0,1.3297942E0,4.134292E0,1.3872924E0,1.0306354E0,6.662893E0,3.0778843E1,1.4912968E1],"tree_param":{"num_deleted":"0","num_feature":"8","num_nodes":"29","size_leaf_vector":"1"}},{"base_weights":[-4.2771466E-2,-1.2525906E-1,2.1463229E-1,-6.274343E-2,-6.240858E-1,-4.7173712E-2,3.2262945E-1,-2.8728366E-1,6.944691E-2,1.7473454E-2,-9.703811E-1,4.5962226E-2,7.0605445E-1,2.4107687E-2,-3.4301758E-2,4.397861E-2,-2.913894E-3,-3.8543537E-2,-1.02788776E-1,3.9825223E-2,-1.5443873E-2,7.849888E-2,8.862032E-3],"categories":[],"categories_nodes":[],"categories_segments":[],"categories_sizes":[],"default_left":[0,0,0,0,0,0,0,0,0,0,0,0,0,0,0,0,0,0,0,0,0,0,0],"id":46,"left_children":[1,3,5,7,9,-1,11,13,15,-1,17,19,21,-1,-1,-1,-1,-1,-1,-1,-1,-1,-1],"loss_changes":[1.7330339E0,1.8782305E0,1.9161824E0,1.6747136E0,2.177134E0,0E0,1.8944008E0,1.8659592E0,1.8452842E0,0E0,1.4266062E-1,1.3510842E0,1.1270032E0,0E0,0E0,0E0,0E0,0E0,0E0,0E0,0E0,0E0,0E0],"parents":[2147483647,0,0,1,1,2,2,3,3,4,4,6,6,7,7,8,8,10,10,11,11,12,12],"right_children":[2,4,6,8,10,-1,12,14,16,-1,18,20,22,-1,-1,-1,-1,-1,-1,-1,-1,-1,-1],"split_conditions":[9.60541E-1,6.585583E-1,-3.2662028E-1,-4.800405E-1,-7.103218E-1,-4.7173712E-2,1.0778803E-1,-8.513551E-1,-2.8611943E-1,1.7473454E-2,2.5787336E-1,-1.14197945E-2,-7.249261E-2,2.4107687E-2,-3.4301758E-2,4.397861E-2,-2.913894E-3,-3.8543537E-2,-1.02788776E-1,3.9825223E-2,-1.5443873E-2,7.849888E-2,8.862032E-3],"split_indices":[0,0,4,6,6,0,3,0,6,0,4,2,4,0,0,0,0,0,0,0,0,0,0],"split_type":[0,0,0,0,0,0,0,0,0,0,0,0,0,0,0,0,0,0,0,0,0,0,0],"sum_hessian":[7.93551E1,6.0485348E1,1.8869757E1,5.4749615E1,5.735733E0,1.7058029E0,1.7163954E1,1.9853294E1,3.4896324E1,1.7783782E0,3.9573548E0,1.0620449E1,6.5435038E0,3.6283872E0,1.6224907E1,5.5456743E0,2.9350649E1,2.541233E0,1.4161217E0,3.2996316E0,7.320818E0,4.031491E0,2.5120132E0],"tree_param":{"num_deleted":"0","num_feature":"8","num_nodes":"23","size_leaf_vector":"1"}},{"base_weights":[-1.8751755E-2,-4.9025318E-1,3.7645385E-2,-6.524371E-2,-1.117703E-1,-1.8721467E-1,1.6896345E-1,3.1785868E-2,-3.931367E-1,-6.4301733E-3,-9.0611666E-1,2.1898645E-1,-4.8775576E-2,2.1386805E-3,-4.7622554E-2,5.0426908E-2,-1.0662294E-2,-8.009062E-2,-2.270902E-2,1.1892349E-2,8.947625E-2],"categories":[],"categories_nodes":[],"categories_segments":[],"categories_sizes":[],"default_left":[0,0,0,0,0,0,0,0,0,0,0,0,0,0,0,0,0,0,0,0,0],"id":47,"left_children":[1,3,5,-1,7,9,11,-1,13,15,17,19,-1,-1,-1,-1,-1,-1,-1,-1,-1],"loss_changes":[2.1407883E0,9.674134E-1,2.1640093E0,0E0,8.9144903E-1,3.5161393E0,1.9297675E0,0E0,3.3915788E-1,1.9143947E0,3.734398E-2,2.621531E0,0E0,0E0,0E0,0E0,0E0,0E0,0E0,0E0,0E0],"parents":[2147483647,0,0,1,1,2,2,4,4,5,5,6,6,8,8,9,9,10,10,11,11],"right_children":[2,4,6,-1,8,10,12,-1,14,16,18,20,-1,-1,-1,-1,-1,-1,-1,-1,-1],"split_conditions":[-8.5747176E-1,-2.4738972E-1,-4.800405E-1,-6.524371E-2,6.585583E-1,-5.9821117E-1,2.7954075E0,3.1785868E-2,-7.46682E-1,-8.513551E-1,2.2034219E-1,2.1106238E0,-4.8775576E-2,2.1386805E-3,-4.7622554E-2,5.0426908E-2,-1.0662294E-2,-8.009062E-2,-2.270902E-2,1.1892349E-2,8.947625E-2],"split_indices":[5,0,6,0,0,6,6,0,6,0,3,6,0,0,0,0,0,0,0,0,0],"split_type":[0,0,0,0,0,0,0,0,0,0,0,0,0,0,0,0,0,0,0,0,0],"sum_hessian":[7.881296E1,7.5979924E0,7.1214966E1,3.4650881E0,4.132904E0,2.609906E1,4.5115902E1,1.3244231E0,2.8084812E0,2.1660877E1,4.438183E0,4.3067875E1,2.0480275E0,1.1947176E0,1.6137636E0,2.938866E0,1.8722012E1,3.322038E0,1.1161451E0,4.1025253E1,2.0426216E0],"tree_param":{"num_deleted":"0","num_feature":"8","num_nodes":"21","size_leaf_vector":"1"}},{"base_weights":[1.3904766E-2,-3.0131474E-1,1.1836796E-1,-4.350932E-1,5.062959E-1,1.8464911E-1,-4.5406634E-1,-5.039183E-1,1.6464092E-2,6.9705397E-3,5.5375766E-2,5.9612308E-2,4.893501E-1,-7.48915E-1,9.20528E-2,-2.1937652E-2,-6.375526E-2,4.5679834E-2,-5.3339475E-3,-6.6860184E-2,5.2002694E-2,-1.4139162E-2,-7.280469E-2,-4.3599814E-2,5.318943E-2],"categories":[],"categories_nodes":[],"categories_segments":[],"categories_sizes":[],"default_left":[0,0,0,0,0,0,0,0,0,0,0,0,0,0,0,0,0,0,0,0,0,0,0,0,0],"id":48,"left_children":[1,3,5,7,9,11,13,15,-1,-1,-1,17,19,21,23,-1,-1,-1,-1,-1,-1,-1,-1,-1,-1],"loss_changes":[2.6713042E0,2.4032416E0,2.3920407E0,8.9200974E-1,1.9944042E-1,2.0751562E0,1.1320351E0,8.87198E-1,0E0,0E0,0E0,2.6407795E0,3.935548E0,2.4455762E-1,1.5320033E0,0E0,0E0,0E0,0E0,0E0,0E0,0E0,0E0,0E0,0E0],"parents":[2147483647,0,0,1,1,2,2,3,3,4,4,5,5,6,6,7,7,11,11,12,12,13,13,14,14],"right_children":[2,4,6,8,10,12,14,16,-1,-1,-1,18,20,22,24,-1,-1,-1,-1,-1,-1,-1,-1,-1,-1],"split_conditions":[-4.893705E-1,2.197542E-1,1.9988121E0,1.4913609E0,-1.7448385E-1,5.6103384E-1,8.039004E-1,-3.0992538E-2,1.6464092E-2,6.9705397E-3,5.5375766E-2,-8.513551E-1,-4.028586E-1,1.5164426E-1,6.4474344E-1,-2.1937652E-2,-6.375526E-2,4.5679834E-2,-5.3339475E-3,-6.6860184E-2,5.2002694E-2,-1.4139162E-2,-7.280469E-2,-4.3599814E-2,5.318943E-2],"split_indices":[1,4,7,7,2,7,2,7,0,0,0,0,4,2,1,0,0,0,0,0,0,0,0,0,0],"split_type":[0,0,0,0,0,0,0,0,0,0,0,0,0,0,0,0,0,0,0,0,0,0,0,0,0],"sum_hessian":[7.904043E1,1.9204899E1,5.9835526E1,1.6871449E1,2.3334498E0,5.423337E1,5.6021543E0,1.5428339E1,1.4431099E0,1.1681781E0,1.1652718E0,3.930135E1,1.4932022E1,3.3968575E0,2.2052968E0,9.733876E0,5.694463E0,7.085967E0,3.2215385E1,1.1605048E0,1.3771518E1,1.207203E0,2.1896546E0,1.0670975E0,1.1381992E0],"tree_param":{"num_deleted":"0","num_feature":"8","num_nodes":"25","size_leaf_vector":"1"}},{"base_weights":[4.969765E-2,-2.4876451E-1,1.2906642E-1,-4.1878757E-1,3.9826015E-1,-5.53768E-1,1.9617102E-1,-7.922899E-1,-1.9828969E-1,-2.5556625E-3,6.0881887E-2,1.9804006E-2,-8.087551E-1,-1.1687165E-1,2.9964295E-1,-7.0108935E-2,-1.8766593E-2,5.364602E-2,-4.729728E-2,-1.5893606E-2,-7.544809E-2,3.3770453E-2,-2.7781915E-2,3.3632644E-2,-1.7918603E-2],"categories":[],"categories_nodes":[],"categories_segments":[],"categories_sizes":[],"default_left":[0,0,0,0,0,0,0,0,0,0,0,0,0,0,0,0,0,0,0,0,0,0,0,0,0],"id":49,"left_children":[1,3,5,7,9,11,13,15,17,-1,-1,-1,19,21,23,-1,-1,-1,-1,-1,-1,-1,-1,-1,-1],"loss_changes":[1.9420706E0,2.0675974E0,3.0572076E0,1.0099308E0,6.654427E-1,1.4301609E0,1.9567795E0,2.5407076E-2,3.8937972E0,0E0,0E0,0E0,2.061224E-1,2.0663223E0,2.931645E0,0E0,0E0,0E0,0E0,0E0,0E0,0E0,0E0,0E0,0E0],"parents":[2147483647,0,0,1,1,2,2,3,3,4,4,5,5,6,6,7,7,8,8,12,12,13,13,14,14],"right_children":[2,4,6,8,10,12,14,16,18,-1,-1,-1,20,22,24,-1,-1,-1,-1,-1,-1,-1,-1,-1,-1],"split_conditions":[-5.201583E-1,7.448123E-1,-6.061607E-1,-6.769916E-1,3.5657564E-1,-8.513551E-1,-6.679015E-1,1.2625237E0,-2.2248909E-1,-2.5556625E-3,6.0881887E-2,1.9804006E-2,-1.3232778E0,7.810615E-3,7.407159E-1,-7.0108935E-2,-1.8766593E-2,5.364602E-2,-4.729728E-2,-1.5893606E-2,-7.544809E-2,3.3770453E-2,-2.7781915E-2,3.3632644E-2,-1.7918603E-2],"split_indices":[5,1,4,6,0,0,6,0,6,0,0,0,1,5,4,0,0,0,0,0,0,0,0,0,0],"split_type":[0,0,0,0,0,0,0,0,0,0,0,0,0,0,0,0,0,0,0,0,0,0,0,0,0],"sum_hessian":[7.962805E1,1.6278671E1,6.3349384E1,1.3170514E1,3.1081567E0,5.0195704E0,5.8329815E1,3.9263928E0,9.244121E0,1.8390915E0,1.2690651E0,1.2187415E0,3.800829E0,1.4458314E1,4.3871502E1,2.9155262E0,1.0108664E0,2.658609E0,6.585512E0,1.1332713E0,2.6675575E0,4.080428E0,1.0377886E1,3.580973E1,8.061772E0],"tree_param":{"num_deleted":"0","num_feature":"8","num_nodes":"25","size_leaf_vector":"1"}},{"base_weights":[-3.531519E-2,-5.6446725E-1,3.441264E-2,-8.594838E-1,1.5634415E-1,-2.844518E-2,6.553835E-1,-7.6487504E-2,-1.6711025E-2,4.318372E-2,-3.1169526E-2,3.0395422E-2,-6.169134E-1,8.7621313E-1,6.7223515E-3,-4.5769876E-3,6.075078E-2,3.3593375E-2,-1.0010428E-1,1.2513082E-2,8.726004E-2],"categories":[],"categories_nodes":[],"categories_segments":[],"categories_sizes":[],"default_left":[0,0,0,0,0,0,0,0,0,0,0,0,0,0,0,0,0,0,0,0,0],"id":50,"left_children":[1,3,5,7,9,11,13,-1,-1,-1,-1,15,17,19,-1,-1,-1,-1,-1,-1,-1],"loss_changes":[2.953959E0,2.1157815E0,2.7984197E0,2.2552395E-1,9.539537E-1,2.2911916E0,7.5757146E-1,0E0,0E0,0E0,0E0,3.914687E0,4.4802685E0,5.4674196E-1,0E0,0E0,0E0,0E0,0E0,0E0,0E0],"parents":[2147483647,0,0,1,1,2,2,3,3,4,4,5,5,6,6,11,11,12,12,13,13],"right_children":[2,4,6,8,10,12,14,-1,-1,-1,-1,16,18,20,-1,-1,-1,-1,-1,-1,-1],"split_conditions":[-5.299224E-1,2.3317628E-1,1.5330542E0,5.504453E-1,4.454505E-1,1.1077459E0,1.2930926E0,-7.6487504E-2,-1.6711025E-2,4.318372E-2,-3.1169526E-2,1.259189E0,1.5164426E-1,-3.2550967E-1,6.7223515E-3,-4.5769876E-3,6.075078E-2,3.3593375E-2,-1.0010428E-1,1.2513082E-2,8.726004E-2],"split_indices":[4,2,5,5,3,5,2,0,0,0,0,6,2,6,0,0,0,0,0,0,0],"split_type":[0,0,0,0,0,0,0,0,0,0,0,0,0,0,0,0,0,0,0,0,0],"sum_hessian":[7.853394E1,8.317631E0,7.021631E1,5.7655144E0,2.5521162E0,6.462848E1,5.58783E0,4.6112084E0,1.154306E0,1.5058154E0,1.0463008E0,5.961587E1,5.012609E0,3.6453295E0,1.9425005E0,5.40427E1,5.573172E0,2.0311038E0,2.9815052E0,1.2340411E0,2.4112883E0],"tree_param":{"num_deleted":"0","num_feature":"8","num_nodes":"21","size_leaf_vector":"1"}},{"base_weights":[2.1646436E-2,-5.273881E-1,8.5112095E-2,-7.2651845E-1,2.9981486E-2,1.21128015E-1,-5.720314E-1,-8.0072194E-1,-1.3194273E-2,1.3009225E-2,3.6168796E-1,-7.668152E-2,1.7638402E-2,-7.07745E-2,-1.5758581E-2,1.6493795E-2,-1.661527E-2,3.936805E-2,-5.95743E-2],"categories":[],"categories_nodes":[],"categories_segments":[],"categories_sizes":[],"default_left":[0,0,0,0,0,0,0,0,0,0,0,0,0,0,0,0,0,0,0],"id":51,"left_children":[1,3,5,7,-1,9,11,13,-1,15,17,-1,-1,-1,-1,-1,-1,-1,-1],"loss_changes":[2.828581E0,1.784322E0,1.7845168E0,1.6944218E-1,0E0,1.8037353E0,1.4182315E0,1.3652968E-1,0E0,2.1320946E0,3.4718883E0,0E0,0E0,0E0,0E0,0E0,0E0,0E0,0E0],"parents":[2147483647,0,0,1,1,2,2,3,3,5,5,6,6,7,7,9,9,10,10],"right_children":[2,4,6,8,-1,10,12,14,-1,16,18,-1,-1,-1,-1,-1,-1,-1,-1],"split_conditions":[-8.89646E-1,8.147594E-1,2.5062633E0,8.039004E-1,2.9981486E-2,6.45609E-1,7.810615E-3,1.0784143E0,-1.3194273E-2,1.5164426E-1,2.0500233E0,-7.668152E-2,1.7638402E-2,-7.07745E-2,-1.5758581E-2,1.6493795E-2,-1.661527E-2,3.936805E-2,-5.95743E-2],"split_indices":[1,7,7,2,0,7,5,5,0,2,6,0,0,0,0,0,0,0,0],"split_type":[0,0,0,0,0,0,0,0,0,0,0,0,0,0,0,0,0,0,0],"sum_hessian":[7.888827E1,7.416771E0,7.14715E1,6.235184E0,1.1815864E0,6.85312E1,2.940299E0,5.13136E0,1.1038244E0,4.800818E1,2.052302E1,1.835636E0,1.1046631E0,4.0963616E0,1.034998E0,2.5636332E1,2.2371847E1,1.8855629E1,1.667391E0],"tree_param":{"num_deleted":"0","num_feature":"8","num_nodes":"19","size_leaf_vector":"1"}},{"base_weights":[-6.7001022E-3,2.0664552E-2,-6.0193565E-2,-1.688731E-2,7.961239E-2,-1.0363035E-1,2.3839833E-1,-4.4505782E-2,-4.5120525E-3,8.7298885E-2,3.3417803E-3],"categories":[],"categories_nodes":[],"categories_segments":[],"categories_sizes":[],"default_left":[0,0,0,0,0,0,0,0,0,0,0],"id":52,"left_children":[1,3,-1,5,-1,7,9,-1,-1,-1,-1],"loss_changes":[1.6398205E0,2.8620636E0,0E0,1.704358E0,0E0,1.1939569E0,3.2310297E0,0E0,0E0,0E0,0E0],"parents":[2147483647,0,0,1,1,3,3,5,5,6,6],"right_children":[2,4,-1,6,-1,8,10,-1,-1,-1,-1],"split_conditions":[2.7954075E0,2.156074E0,-6.0193565E-2,9.60541E-1,7.961239E-2,-9.5878315E-1,5.3582657E-2,-4.4505782E-2,-4.5120525E-3,8.7298885E-2,3.3417803E-3],"split_indices":[6,6,0,0,0,6,7,0,0,0,0],"split_type":[0,0,0,0,0,0,0,0,0,0,0],"sum_hessian":[7.8596375E1,7.675219E1,1.8441818E0,7.485051E1,1.9016844E0,5.6310818E1,1.8539688E1,4.301574E0,5.2009247E1,2.621125E0,1.5918563E1],"tree_param":{"num_deleted":"0","num_feature":"8","num_nodes":"11","size_leaf_vector":"1"}},{"base_weights":[-2.2419704E-2,-1.0980648E-1,2.553782E-1,1.40350275E-2,-3.1788945E-1,8.844506E-2,6.1814718E-2,6.140699E-1,-1.1110104E-1,-4.5078704E-1,2.660251E-1,-4.3614694E-1,2.735819E-1,-3.6624982E-3,7.191152E-2,-1.899293E-2,3.3556737E-2,-1.7447421E-2,-7.4048854E-2,4.4142965E-2,-3.2273352E-2,1.0379338E-2,-7.90176E-2,3.6277905E-2,-3.7306763E-2],"categories":[],"categories_nodes":[],"categories_segments":[],"categories_sizes":[],"default_left":[0,0,0,0,0,0,0,0,0,0,0,0,0,0,0,0,0,0,0,0,0,0,0,0,0],"id":53,"left_children":[1,3,5,7,9,-1,11,13,15,17,19,21,23,-1,-1,-1,-1,-1,-1,-1,-1,-1,-1,-1,-1],"loss_changes":[1.9059781E0,1.5389227E0,3.0274668E0,2.943046E0,1.8472385E0,0E0,1.8468995E0,1.3116469E0,2.2793946E0,1.8425362E0,1.1323738E0,1.7742157E0,1.8232296E0,0E0,0E0,0E0,0E0,0E0,0E0,0E0,0E0,0E0,0E0,0E0,0E0],"parents":[2147483647,0,0,1,1,2,2,3,3,4,4,6,6,7,7,8,8,9,9,10,10,11,11,12,12],"right_children":[2,4,6,8,10,-1,12,14,16,18,20,22,24,-1,-1,-1,-1,-1,-1,-1,-1,-1,-1,-1,-1],"split_conditions":[9.60541E-1,4.7777236E-1,5.3582657E-2,-8.513551E-1,1.5330542E0,8.844506E-2,5.6103384E-1,2.1313186E-1,6.45609E-1,9.0242463E-1,6.622758E-1,1.866489E0,1.9988121E0,-3.6624982E-3,7.191152E-2,-1.899293E-2,3.3556737E-2,-1.7447421E-2,-7.4048854E-2,4.4142965E-2,-3.2273352E-2,1.0379338E-2,-7.90176E-2,3.6277905E-2,-3.7306763E-2],"split_indices":[0,2,7,0,5,0,7,5,7,5,6,0,7,0,0,0,0,0,0,0,0,0,0,0,0],"split_type":[0,0,0,0,0,0,0,0,0,0,0,0,0,0,0,0,0,0,0,0,0,0,0,0,0],"sum_hessian":[7.6358154E1,5.8546066E1,1.781209E1,3.728706E1,2.1259008E1,2.4294837E0,1.5382606E1,5.7600517E0,3.1527008E1,1.7503292E1,3.755717E0,4.273676E0,1.110893E1,1.9897262E0,3.7703257E0,2.5910915E1,5.6160917E0,1.27260275E1,4.7772636E0,2.755317E0,1.0004E0,2.4869542E0,1.786722E0,9.247711E0,1.8612183E0],"tree_param":{"num_deleted":"0","num_feature":"8","num_nodes":"25","size_leaf_vector":"1"}},{"base_weights":[-4.639043E-3,-7.16202E-2,3.1966454E-1,-1.9480088E-1,1.0641777E-1,4.5888585E-1,-9.035599E-2,-4.320311E-1,-1.4564067E-3,-1.8909898E-1,3.7682053E-1,6.109678E-1,-9.652315E-3,-4.786643E-2,5.431504E-2,-4.649522E-2,1.4487821E-2,7.039065E-2,-1.4090051E-2,9.695101E-3,-5.413358E-2,4.1991413E-2,-3.7136264E-2,7.291417E-2,8.045277E-3],"categories":[],"categories_nodes":[],"categories_segments":[],"categories_sizes":[],"default_left":[0,0,0,0,0,0,0,0,0,0,0,0,0,0,0,0,0,0,0,0,0,0,0,0,0],"id":54,"left_children":[1,3,5,7,9,11,13,15,17,19,21,23,-1,-1,-1,-1,-1,-1,-1,-1,-1,-1,-1,-1,-1],"loss_changes":[1.742069E0,1.4772124E0,8.252803E-1,1.816031E0,2.2931547E0,9.916699E-1,2.0928516E0,1.7314537E0,3.6687672E0,2.1927106E0,2.0934415E0,1.1988187E0,0E0,0E0,0E0,0E0,0E0,0E0,0E0,0E0,0E0,0E0,0E0,0E0,0E0],"parents":[2147483647,0,0,1,1,2,2,3,3,4,4,5,5,6,6,7,7,8,8,9,9,10,10,11,11],"right_children":[2,4,6,8,10,12,14,16,18,20,22,24,-1,-1,-1,-1,-1,-1,-1,-1,-1,-1,-1,-1,-1],"split_conditions":[1.1117315E0,9.566266E-2,1.2376354E0,-2.0014292E-1,-2.4738972E-1,2.3925457E0,1.7455012E0,5.780309E-1,-5.493724E-1,1.1925287E0,1.0456691E0,1.7788574E0,-9.652315E-3,-4.786643E-2,5.431504E-2,-4.649522E-2,1.4487821E-2,7.039065E-2,-1.4090051E-2,9.695101E-3,-5.413358E-2,4.1991413E-2,-3.7136264E-2,7.291417E-2,8.045277E-3],"split_indices":[1,6,7,7,0,4,1,1,0,6,4,1,0,0,0,0,0,0,0,0,0,0,0,0,0],"split_type":[0,0,0,0,0,0,0,0,0,0,0,0,0,0,0,0,0,0,0,0,0,0,0,0,0],"sum_hessian":[7.8143555E1,6.541251E1,1.2731043E1,3.8607E1,2.6805515E1,9.415021E0,3.3160217E0,1.6781673E1,2.1825327E1,1.2951646E1,1.3853869E1,7.4149675E0,2.0000536E0,2.1310785E0,1.1849432E0,1.3539851E1,3.2418215E0,2.94221E0,1.8883118E1,8.373949E0,4.5776973E0,1.2099499E1,1.7543707E0,4.1728325E0,3.242135E0],"tree_param":{"num_deleted":"0","num_feature":"8","num_nodes":"25","size_leaf_vector":"1"}},{"base_weights":[-9.57046E-3,-3.7630254E-1,5.072839E-2,-5.793028E-1,2.2358043E-1,8.2378395E-2,-5.53778E-1,-7.1192175E-1,1.968475E-3,-2.7098766E-2,5.279989E-2,-2.0868571E-1,1.5817787E-1,-6.480782E-2,-3.4828559E-3,-9.303621E-3,-6.389013E-2,-3.13567E-2,2.8099861E-2,6.21533E-2,8.330705E-3],"categories":[],"categories_nodes":[],"categories_segments":[],"categories_sizes":[],"default_left":[0,0,0,0,0,0,0,0,0,0,0,0,0,0,0,0,0,0,0,0,0],"id":55,"left_children":[1,3,5,7,9,11,13,15,-1,-1,-1,17,19,-1,-1,-1,-1,-1,-1,-1,-1],"loss_changes":[1.7788938E0,1.5124065E0,1.3700664E0,7.193594E-1,1.1052424E0,1.503497E0,4.3209887E-1,2.7992392E-1,0E0,0E0,0E0,1.5951208E0,1.706376E0,0E0,0E0,0E0,0E0,0E0,0E0,0E0,0E0],"parents":[2147483647,0,0,1,1,2,2,3,3,4,4,5,5,6,6,7,7,11,11,12,12],"right_children":[2,4,6,8,10,12,14,16,-1,-1,-1,18,20,-1,-1,-1,-1,-1,-1,-1,-1],"split_conditions":[-7.2286457E-1,5.2895504E-1,2.5062633E0,7.26435E-1,2.2034219E-1,-7.075941E-1,2.7599888E0,-8.9212275E-1,1.968475E-3,-2.7098766E-2,5.279989E-2,1.1224117E0,-6.230189E-1,-6.480782E-2,-3.4828559E-3,-9.303621E-3,-6.389013E-2,-3.13567E-2,2.8099861E-2,6.21533E-2,8.330705E-3],"split_indices":[1,6,7,5,3,7,7,6,0,0,0,5,7,0,0,0,0,0,0,0,0],"split_type":[0,0,0,0,0,0,0,0,0,0,0,0,0,0,0,0,0,0,0,0,0],"sum_hessian":[7.8580475E1,1.0355945E1,6.8224525E1,7.7631903E0,2.5927541E0,6.565098E1,2.5735471E0,6.2187004E0,1.5444895E0,1.2307678E0,1.3619862E0,1.3202247E1,5.2448734E1,1.3218464E0,1.2517008E0,1.0877292E0,5.1309714E0,1.0172619E1,3.0296278E0,3.1387112E0,4.931002E1],"tree_param":{"num_deleted":"0","num_feature":"8","num_nodes":"21","size_leaf_vector":"1"}},{"base_weights":[4.376545E-2,-4.4348937E-1,9.569035E-2,